var staticNet = {"sizes":[80,40,1],"layers":[{"0":{},"1":{},"2":{},"3":{},"4":{},"5":{},"6":{},"7":{},"8":{},"9":{},"10":{},"11":{},"12":{},"13":{},"14":{},"15":{},"16":{},"17":{},"18":{},"19":{},"20":{},"21":{},"22":{},"23":{},"24":{},"25":{},"26":{},"27":{},"28":{},"29":{},"30":{},"31":{},"32":{},"33":{},"34":{},"35":{},"36":{},"37":{},"38":{},"39":{},"40":{},"41":{},"42":{},"43":{},"44":{},"45":{},"46":{},"47":{},"48":{},"49":{},"50":{},"51":{},"52":{},"53":{},"54":{},"55":{},"56":{},"57":{},"58":{},"59":{},"60":{},"61":{},"62":{},"63":{},"64":{},"65":{},"66":{},"67":{},"68":{},"69":{},"70":{},"71":{},"72":{},"73":{},"74":{},"75":{},"76":{},"77":{},"78":{},"79":{}},{"0":{"bias":0.0920012816786766,"weights":{"0":-0.11331827938556671,"1":0.14015959203243256,"2":0.1389002799987793,"3":-0.13049310445785522,"4":-0.1353876143693924,"5":0.08415879309177399,"6":-0.113373763859272,"7":-0.13678061962127686,"8":-0.15822215378284454,"9":-0.07887953519821167,"10":0.08613239228725433,"11":-0.1728704869747162,"12":0.01115970779210329,"13":0.1817583590745926,"14":-0.06879045814275742,"15":0.1976575404405594,"16":-0.015051793307065964,"17":0.05568631365895271,"18":0.12825603783130646,"19":0.09186679869890213,"20":-0.1662137508392334,"21":0.108576700091362,"22":0.17561180889606476,"23":0.08502194285392761,"24":0.18392056226730347,"25":0.03854710981249809,"26":-0.16568082571029663,"27":-0.003075988730415702,"28":0.13724681735038757,"29":0.02414112165570259,"30":-0.12102793157100677,"31":-0.0018840129487216473,"32":-0.09894335269927979,"33":0.18032020330429077,"34":-0.057769570499658585,"35":-0.15687957406044006,"36":-0.0025911531411111355,"37":-0.051095668226480484,"38":0.12045852839946747,"39":-0.19970232248306274,"40":-0.18060193955898285,"41":-0.06500441581010818,"42":0.1831807941198349,"43":0.17507079243659973,"44":-0.05693943053483963,"45":-0.06532882899045944,"46":-0.14191031455993652,"47":-0.048974405974149704,"48":0.018299441784620285,"49":0.04568884149193764,"50":-0.17905846238136292,"51":-0.160695418715477,"52":-0.18783463537693024,"53":-0.06726927310228348,"54":-0.04541904106736183,"55":0.13910801708698273,"56":0.12793004512786865,"57":-0.1934555470943451,"58":0.1451171338558197,"59":0.1558295637369156,"60":0.12254328280687332,"61":0.18882785737514496,"62":-0.17738305032253265,"63":-0.10182482749223709,"64":0.14243608713150024,"65":-0.028769604861736298,"66":-0.1398114264011383,"67":-0.16257740557193756,"68":-0.1540430188179016,"69":-0.023578111082315445,"70":-0.07329130172729492,"71":-0.13039149343967438,"72":-0.19507357478141785,"73":0.13276782631874084,"74":0.17207370698451996,"75":-0.026222342625260353,"76":0.09015899896621704,"77":-0.17349179089069366,"78":-0.07356142997741699,"79":0.054685745388269424}},"1":{"bias":0.16164375841617584,"weights":{"0":0.14173029363155365,"1":-0.14226366579532623,"2":-0.03930208459496498,"3":-0.11647044867277145,"4":-0.1693454384803772,"5":0.1347893476486206,"6":0.043401703238487244,"7":-0.08447682857513428,"8":0.11293469369411469,"9":0.16754311323165894,"10":-0.1459892839193344,"11":0.15353085100650787,"12":0.09213870763778687,"13":0.15697677433490753,"14":0.002950547728687525,"15":0.021278303116559982,"16":0.006215519737452269,"17":-0.11934388428926468,"18":-0.18704688549041748,"19":0.052418723702430725,"20":-0.05375828593969345,"21":-0.06731298565864563,"22":0.14863091707229614,"23":-0.1720069944858551,"24":0.079481340944767,"25":0.14370715618133545,"26":-0.05573398247361183,"27":-0.1880110651254654,"28":0.15138855576515198,"29":0.012511256150901318,"30":0.1631963849067688,"31":-0.05597003549337387,"32":0.0827764943242073,"33":0.17736315727233887,"34":0.17351694405078888,"35":-0.19226549565792084,"36":-0.03196879103779793,"37":0.15769962966442108,"38":-0.13815531134605408,"39":0.14504127204418182,"40":0.07000486552715302,"41":0.06287171691656113,"42":-0.05738354101777077,"43":-0.18423481285572052,"44":0.1868775635957718,"45":0.05895216390490532,"46":-0.16282318532466888,"47":-0.01265837624669075,"48":0.13293613493442535,"49":0.1846407800912857,"50":0.17832909524440765,"51":-0.13948224484920502,"52":-0.08348448574542999,"53":0.0621628612279892,"54":0.08062496781349182,"55":-0.08411525934934616,"56":-0.09325195848941803,"57":-0.0495687834918499,"58":-0.03903678059577942,"59":-0.20184668898582458,"60":0.021934881806373596,"61":0.11365688592195511,"62":0.05598526820540428,"63":0.16858229041099548,"64":0.13798865675926208,"65":-0.1342545449733734,"66":-0.033088162541389465,"67":-0.0847938135266304,"68":-0.09604522585868835,"69":0.056518539786338806,"70":0.19288036227226257,"71":0.03863342106342316,"72":-0.10436934232711792,"73":0.12601356208324432,"74":0.07479147613048553,"75":0.05069290101528168,"76":0.019204486161470413,"77":0.13619722425937653,"78":-0.12281116098165512,"79":0.17633716762065887}},"2":{"bias":0.18959128856658936,"weights":{"0":0.1291738599538803,"1":-0.15119779109954834,"2":0.0033760457299649715,"3":-0.04223374277353287,"4":0.14560583233833313,"5":0.15673072636127472,"6":0.014199883677065372,"7":0.06885259598493576,"8":0.06749764829874039,"9":0.1629839986562729,"10":0.01681186817586422,"11":0.11618275195360184,"12":0.06630046665668488,"13":-0.1757320612668991,"14":-0.0807071253657341,"15":0.03659544885158539,"16":0.11541063338518143,"17":0.07391912490129471,"18":0.039683133363723755,"19":-0.08454236388206482,"20":-0.012242146767675877,"21":-0.10717493295669556,"22":0.04807243123650551,"23":-0.08623374998569489,"24":-0.16575288772583008,"25":0.15219567716121674,"26":0.10351422429084778,"27":-0.13540135324001312,"28":-0.0000830367935122922,"29":0.07131844013929367,"30":-0.002120755612850189,"31":0.14336292445659637,"32":0.047250229865312576,"33":-0.08084157109260559,"34":0.0791618824005127,"35":-0.07937631011009216,"36":-0.08883050084114075,"37":0.08198694884777069,"38":-0.028267189860343933,"39":0.16074880957603455,"40":0.18287958204746246,"41":0.17674554884433746,"42":0.09588538855314255,"43":-0.17717556655406952,"44":0.14299635589122772,"45":-0.0869099423289299,"46":-0.04925483092665672,"47":0.11883021891117096,"48":0.06498351693153381,"49":0.07191488146781921,"50":0.031962767243385315,"51":0.07601207494735718,"52":0.07578206062316895,"53":-0.11882562935352325,"54":-0.0597178116440773,"55":-0.15215438604354858,"56":0.11633995175361633,"57":-0.09410399943590164,"58":0.049025874584913254,"59":-0.003589797765016556,"60":-0.01837863028049469,"61":-0.13387738168239594,"62":-0.04412519559264183,"63":0.03074190579354763,"64":0.0433083102107048,"65":0.14471587538719177,"66":0.15528807044029236,"67":-0.10096738487482071,"68":0.061999253928661346,"69":0.09348433464765549,"70":0.07130996137857437,"71":0.06329389661550522,"72":0.1484595537185669,"73":-0.08807346224784851,"74":-0.16720451414585114,"75":-0.16751597821712494,"76":-0.1841658651828766,"77":-0.19982996582984924,"78":0.12046382576227188,"79":-0.19436001777648926}},"3":{"bias":0.18000485002994537,"weights":{"0":-0.13395726680755615,"1":0.1439111828804016,"2":-0.09982752054929733,"3":0.10793592035770416,"4":0.12754559516906738,"5":0.03135593608021736,"6":0.028089089319109917,"7":0.00013861077604815364,"8":0.016861308366060257,"9":0.21251638233661652,"10":0.18705101311206818,"11":-0.046179477125406265,"12":-0.15751950442790985,"13":0.02638138085603714,"14":0.08196720480918884,"15":-0.1691863238811493,"16":-0.14704102277755737,"17":-0.14010192453861237,"18":0.16004271805286407,"19":-0.10240479558706284,"20":-0.02303997427225113,"21":0.06902725249528885,"22":-0.05232337489724159,"23":0.09830943495035172,"24":0.15736688673496246,"25":-0.04791206866502762,"26":0.12241227179765701,"27":0.15168125927448273,"28":0.08958466351032257,"29":0.11851725727319717,"30":-0.043217871338129044,"31":-0.04532351344823837,"32":-0.1381615549325943,"33":0.06102152541279793,"34":-0.050650302320718765,"35":-0.05392741039395332,"36":0.12288974970579147,"37":0.11908628046512604,"38":0.07974885404109955,"39":-0.1407088041305542,"40":0.05810681730508804,"41":0.049342717975378036,"42":-0.013332140631973743,"43":-0.0942264124751091,"44":0.04230406507849693,"45":-0.12175209075212479,"46":-0.1279555708169937,"47":0.11274828016757965,"48":-0.09444205462932587,"49":-0.05151867866516113,"50":-0.14797934889793396,"51":0.12314489483833313,"52":0.062148742377758026,"53":0.08092879503965378,"54":-0.13629330694675446,"55":0.18546049296855927,"56":0.14943069219589233,"57":-0.11884782463312149,"58":0.1162954717874527,"59":0.18557941913604736,"60":-0.14586646854877472,"61":-0.0978083610534668,"62":0.14313119649887085,"63":0.0725371390581131,"64":-0.022236671298742294,"65":-0.022741371765732765,"66":0.01719052344560623,"67":-0.06658101081848145,"68":0.03704310953617096,"69":0.17435964941978455,"70":-0.09124168753623962,"71":0.17199406027793884,"72":-0.08767937123775482,"73":-0.19868995249271393,"74":0.011879910714924335,"75":0.15393942594528198,"76":0.14334172010421753,"77":0.15731023252010345,"78":-0.08714897930622101,"79":0.0960407629609108}},"4":{"bias":0.09318001568317413,"weights":{"0":0.023413946852087975,"1":-0.07897966355085373,"2":0.038293760269880295,"3":-0.17751558125019073,"4":-0.174269437789917,"5":-0.001964582595974207,"6":-0.1765114963054657,"7":0.1599549502134323,"8":-0.17863532900810242,"9":-0.1108008623123169,"10":0.15418659150600433,"11":0.052166543900966644,"12":-0.03622166067361832,"13":0.21151293814182281,"14":0.13351693749427795,"15":0.19125765562057495,"16":-0.13860999047756195,"17":0.19147522747516632,"18":0.17428672313690186,"19":0.16505397856235504,"20":-0.1693343073129654,"21":-0.12873782217502594,"22":-0.09854545444250107,"23":-0.1616540104150772,"24":0.06520352512598038,"25":0.1016833484172821,"26":-0.07495433837175369,"27":0.11067480593919754,"28":0.11083506047725677,"29":0.12489639222621918,"30":0.011288005858659744,"31":0.20396466553211212,"32":0.012132944539189339,"33":-0.10868345946073532,"34":-0.07652512192726135,"35":0.012866608798503876,"36":0.17949773371219635,"37":-0.019344694912433624,"38":0.18687447905540466,"39":0.139982670545578,"40":-0.11475640535354614,"41":0.0022448315285146236,"42":0.07872608304023743,"43":-0.02611762098968029,"44":-0.08360638469457626,"45":-0.0657624825835228,"46":-0.17482151091098785,"47":-0.11558908224105835,"48":0.07399889081716537,"49":0.0027097139973193407,"50":-0.08564488589763641,"51":0.1332540363073349,"52":-0.14848142862319946,"53":-0.01889484003186226,"54":-0.19402629137039185,"55":-0.00451942952349782,"56":-0.12237128615379333,"57":-0.10612080246210098,"58":0.11740921437740326,"59":-0.028889667242765427,"60":-0.11606185138225555,"61":0.12976761162281036,"62":0.012507029809057713,"63":0.17337267100811005,"64":-0.07339487969875336,"65":0.15084701776504517,"66":0.1568780243396759,"67":0.10297153145074844,"68":0.07305066287517548,"69":0.1019916757941246,"70":-0.1361127346754074,"71":-0.09199710190296173,"72":0.08617887645959854,"73":-0.12080943584442139,"74":0.11054660379886627,"75":0.12033248692750931,"76":-0.10704987496137619,"77":-0.03185412287712097,"78":0.0031099647749215364,"79":-0.18564124405384064}},"5":{"bias":-0.09455246478319168,"weights":{"0":-0.06379757076501846,"1":-0.1751362681388855,"2":-0.1355247050523758,"3":-0.031673021614551544,"4":-0.09422525763511658,"5":0.1739962100982666,"6":-0.1539820432662964,"7":-0.1586543768644333,"8":0.09178311377763748,"9":0.1166364997625351,"10":-0.107637420296669,"11":-0.00025391706731170416,"12":-0.12465358525514603,"13":-0.171517014503479,"14":0.12510643899440765,"15":0.09122515469789505,"16":0.09207671880722046,"17":-0.14670170843601227,"18":0.04889010637998581,"19":0.1227564886212349,"20":0.06162596866488457,"21":-0.18555428087711334,"22":0.13435427844524384,"23":-0.19167590141296387,"24":-0.12706340849399567,"25":-0.027710026130080223,"26":0.09073493629693985,"27":0.05952068418264389,"28":0.19176527857780457,"29":0.19364699721336365,"30":-0.1676735132932663,"31":-0.01250012218952179,"32":-0.11615309864282608,"33":-0.00047870221897028387,"34":0.1642155647277832,"35":-0.1917310357093811,"36":-0.056825488805770874,"37":0.1534733921289444,"38":-0.10270620137453079,"39":-0.12102638185024261,"40":0.1692775934934616,"41":0.08279126137495041,"42":0.07638751715421677,"43":-0.016129789873957634,"44":-0.0965457633137703,"45":-0.06917817890644073,"46":0.08381006121635437,"47":0.0476309210062027,"48":0.13162043690681458,"49":0.028332125395536423,"50":0.11804933100938797,"51":-0.16417889297008514,"52":0.10008817166090012,"53":0.011307991109788418,"54":0.16994503140449524,"55":0.13858895003795624,"56":-0.025214143097400665,"57":-0.11436470597982407,"58":-0.08851924538612366,"59":-0.08143268525600433,"60":0.18516097962856293,"61":-0.10710447281599045,"62":-0.16429157555103302,"63":0.10182405263185501,"64":-0.02092924527823925,"65":-0.02197697013616562,"66":-0.054804444313049316,"67":0.18172574043273926,"68":-0.1388135701417923,"69":0.15173359215259552,"70":0.12478374689817429,"71":0.06177501380443573,"72":-0.18510188162326813,"73":0.06605317443609238,"74":0.03358059003949165,"75":-0.012230443768203259,"76":-0.18248401582241058,"77":-0.11931849271059036,"78":0.029510343447327614,"79":0.17927101254463196}},"6":{"bias":0.051954276859760284,"weights":{"0":0.20681755244731903,"1":0.21917954087257385,"2":0.1564508080482483,"3":0.17373138666152954,"4":0.1015620306134224,"5":0.11288823187351227,"6":0.21530486643314362,"7":0.012725094333291054,"8":0.002467026701197028,"9":-0.09301774948835373,"10":0.1635032296180725,"11":0.03287271037697792,"12":-0.10897372663021088,"13":-0.1669473946094513,"14":0.09887631982564926,"15":0.0047118146903812885,"16":-0.04303727671504021,"17":0.08307313174009323,"18":-0.09678906202316284,"19":0.08612488210201263,"20":0.023971475660800934,"21":-0.08844219148159027,"22":0.12132897228002548,"23":-0.07065511494874954,"24":-0.012925826944410801,"25":-0.045559778809547424,"26":-0.02565327286720276,"27":-0.10143598914146423,"28":-0.03766898810863495,"29":-0.04648358374834061,"30":-0.0643162652850151,"31":-0.08180245012044907,"32":0.17185676097869873,"33":0.026283252984285355,"34":0.0047151679173111916,"35":0.102337546646595,"36":0.08031323552131653,"37":-0.040791720151901245,"38":-0.10626906901597977,"39":0.05433234944939613,"40":0.05065089836716652,"41":-0.11972231417894363,"42":0.17966638505458832,"43":-0.003845463739708066,"44":0.0285732951015234,"45":-0.12002088129520416,"46":-0.11272495985031128,"47":-0.08254443109035492,"48":0.08678200095891953,"49":-0.04710039123892784,"50":-0.13476264476776123,"51":0.03548924997448921,"52":0.15460747480392456,"53":0.003203518455848098,"54":0.019658241420984268,"55":0.18427610397338867,"56":0.061236608773469925,"57":0.05680939555168152,"58":0.010815340094268322,"59":0.05203176662325859,"60":0.17595155537128448,"61":0.050420038402080536,"62":0.11632943898439407,"63":0.06069117411971092,"64":-0.034984223544597626,"65":0.12923631072044373,"66":0.16798749566078186,"67":0.0851915255188942,"68":-0.031059468165040016,"69":-0.13233761489391327,"70":0.06609530001878738,"71":0.07907801121473312,"72":-0.11975200474262238,"73":0.0005824261461384594,"74":-0.14664480090141296,"75":-0.140600323677063,"76":-0.1282469630241394,"77":0.1064060628414154,"78":-0.155353844165802,"79":-0.05950198695063591}},"7":{"bias":0.2197386473417282,"weights":{"0":-0.12626953423023224,"1":-0.0887804701924324,"2":-0.15606433153152466,"3":-0.1657520979642868,"4":0.010930604301393032,"5":0.18523405492305756,"6":0.12774109840393066,"7":0.06906210631132126,"8":0.1799517124891281,"9":-0.0439155250787735,"10":-0.15205328166484833,"11":0.12540651857852936,"12":-0.15591375529766083,"13":-0.15261219441890717,"14":-0.1622110903263092,"15":-0.030185025185346603,"16":-0.10562073439359665,"17":0.15024079382419586,"18":0.0034008075017482042,"19":0.014692490920424461,"20":0.09838905185461044,"21":0.19222836196422577,"22":0.0063735865987837315,"23":0.1532236784696579,"24":0.05255532264709473,"25":0.16931141912937164,"26":0.11939350515604019,"27":-0.11911256611347198,"28":-0.13187845051288605,"29":0.05560165271162987,"30":-0.019385961815714836,"31":-0.08401848375797272,"32":0.18444573879241943,"33":-0.11475902050733566,"34":0.18961749970912933,"35":-0.10641460120677948,"36":-0.010580528527498245,"37":-0.04942560940980911,"38":-0.17326730489730835,"39":-0.012481993064284325,"40":-0.026152916252613068,"41":-0.15784315764904022,"42":-0.1634387969970703,"43":-0.02012253738939762,"44":-0.029584022238850594,"45":-0.014163615182042122,"46":0.04351545870304108,"47":0.08766339719295502,"48":0.1927923560142517,"49":-0.09042558073997498,"50":-0.06814287602901459,"51":-0.05942755565047264,"52":0.17458820343017578,"53":0.18973073363304138,"54":-0.12864530086517334,"55":-0.10969842970371246,"56":0.06938831508159637,"57":-0.1562589704990387,"58":0.10118939727544785,"59":0.16594259440898895,"60":0.09271563589572906,"61":0.17573539912700653,"62":0.0026463977992534637,"63":0.08127114176750183,"64":0.17329896986484528,"65":0.026856262236833572,"66":0.11176986247301102,"67":-0.1994560956954956,"68":-0.09097108244895935,"69":0.019283432513475418,"70":0.14374035596847534,"71":0.020303405821323395,"72":-0.04007011279463768,"73":0.1353321224451065,"74":0.0974869653582573,"75":0.06692565977573395,"76":-0.1796441376209259,"77":-0.10037677735090256,"78":0.13400349020957947,"79":-0.003803467145189643}},"8":{"bias":-0.024127842858433723,"weights":{"0":-0.1618317812681198,"1":-0.10983775556087494,"2":-0.01884651742875576,"3":-0.00010740153084043413,"4":-0.06360920518636703,"5":0.13967189192771912,"6":-0.06721792370080948,"7":-0.010668683797121048,"8":0.0342927947640419,"9":0.014392353594303131,"10":-0.03473843261599541,"11":0.1258583515882492,"12":-0.13061068952083588,"13":0.12156654894351959,"14":-0.09834834933280945,"15":0.08236589282751083,"16":0.026317685842514038,"17":0.1843741089105606,"18":0.17659197747707367,"19":0.029502300545573235,"20":-0.06219023838639259,"21":-0.11518464982509613,"22":-0.1406816989183426,"23":0.00479590380564332,"24":-0.046284403651952744,"25":-0.12912164628505707,"26":0.06781555712223053,"27":0.028310874477028847,"28":0.03544160723686218,"29":-0.13061672449111938,"30":0.14111335575580597,"31":0.03131626173853874,"32":0.1366170346736908,"33":-0.19042760133743286,"34":-0.08043908327817917,"35":-0.20314790308475494,"36":-0.1250280886888504,"37":-0.1317935734987259,"38":-0.10078852623701096,"39":0.016972044482827187,"40":-0.1878356635570526,"41":0.13486917316913605,"42":0.06320799142122269,"43":0.0020605383906513453,"44":-0.07077805697917938,"45":-0.012697646394371986,"46":-0.17223131656646729,"47":0.171380415558815,"48":-0.15548314154148102,"49":0.10897599905729294,"50":0.16459202766418457,"51":-0.003242762526497245,"52":0.1553272306919098,"53":-0.09129845350980759,"54":0.04336255416274071,"55":-0.1644945740699768,"56":-0.16082069277763367,"57":-0.009148805402219296,"58":0.09383083134889603,"59":0.03626880422234535,"60":-0.1527690291404724,"61":0.12407438457012177,"62":0.107790507376194,"63":-0.0005811888258904219,"64":-0.07034669071435928,"65":0.18415530025959015,"66":0.03015713393688202,"67":-0.12988652288913727,"68":-0.17571020126342773,"69":-0.09434007853269577,"70":0.014791972935199738,"71":-0.10595443099737167,"72":-0.1684713065624237,"73":0.0931466668844223,"74":-0.01098641101270914,"75":-0.13248923420906067,"76":0.03418167680501938,"77":-0.09482000023126602,"78":-0.06702601164579391,"79":-0.03421754390001297}},"9":{"bias":-0.13720636069774628,"weights":{"0":0.008130631409585476,"1":0.03189066797494888,"2":-0.012405205518007278,"3":-0.12602201104164124,"4":-0.14289125800132751,"5":-0.05965959653258324,"6":0.09758011251688004,"7":0.13122521340847015,"8":-0.06065047159790993,"9":-0.0385371595621109,"10":-0.1611710786819458,"11":0.053571686148643494,"12":0.208145871758461,"13":-0.13752853870391846,"14":-0.08527970314025879,"15":0.10094594955444336,"16":0.07652198523283005,"17":0.15422140061855316,"18":0.1390780508518219,"19":0.03556782007217407,"20":0.05342376232147217,"21":0.04462242126464844,"22":0.13868501782417297,"23":0.1866915374994278,"24":0.012118365615606308,"25":0.019959792494773865,"26":-0.10989930480718613,"27":0.13002479076385498,"28":0.197260320186615,"29":-0.10504506528377533,"30":-0.10030899941921234,"31":0.05943984538316727,"32":0.014125198125839233,"33":-0.19347593188285828,"34":-0.16295774281024933,"35":0.1087685152888298,"36":0.10357694327831268,"37":0.1513168066740036,"38":0.16073627769947052,"39":0.10379063338041306,"40":-0.17915385961532593,"41":0.17571395635604858,"42":-0.0775059312582016,"43":0.046939704567193985,"44":0.051901061087846756,"45":-0.03716522455215454,"46":-0.03175277262926102,"47":0.05763400346040726,"48":-0.06502139568328857,"49":-0.14985333383083344,"50":-0.16800501942634583,"51":0.08765846490859985,"52":0.15325964987277985,"53":0.14813287556171417,"54":-0.1069745346903801,"55":0.12713207304477692,"56":0.13468493521213531,"57":-0.1369810402393341,"58":0.09858626127243042,"59":-0.0657668188214302,"60":-0.06121911481022835,"61":0.055438026785850525,"62":-0.16865120828151703,"63":-0.09422554820775986,"64":-0.09969992190599442,"65":0.04783179238438606,"66":0.02593676745891571,"67":0.18009665608406067,"68":0.17045362293720245,"69":-0.1673695594072342,"70":0.15958556532859802,"71":0.08608654141426086,"72":-0.006756947375833988,"73":0.0529700331389904,"74":0.1911243051290512,"75":0.016770994290709496,"76":0.19792036712169647,"77":0.19752465188503265,"78":0.1882331818342209,"79":0.09800583869218826}},"10":{"bias":0.15630200505256653,"weights":{"0":0.13994793593883514,"1":-0.14174290001392365,"2":-0.1332940310239792,"3":-0.07975338399410248,"4":-0.03703080490231514,"5":-0.13627219200134277,"6":0.09092133492231369,"7":-0.005018946249037981,"8":0.028207886964082718,"9":0.17984791100025177,"10":0.19384634494781494,"11":-0.08019738644361496,"12":0.09864548593759537,"13":-0.024463655427098274,"14":0.20339033007621765,"15":-0.0739748626947403,"16":0.08753017336130142,"17":-0.12965752184391022,"18":-0.004051084630191326,"19":0.186283141374588,"20":0.19672422111034393,"21":-0.0695507600903511,"22":0.10416335612535477,"23":-0.12580303847789764,"24":0.02102258801460266,"25":0.16393722593784332,"26":0.0827769935131073,"27":-0.08140816539525986,"28":0.061447203159332275,"29":0.16368912160396576,"30":-0.060130197554826736,"31":0.14482660591602325,"32":-0.1127052828669548,"33":0.14496682584285736,"34":-0.13246868550777435,"35":-0.013198146596550941,"36":0.12293544411659241,"37":0.13156506419181824,"38":0.2015734761953354,"39":-0.03667285665869713,"40":-0.0075812749564647675,"41":-0.08178326487541199,"42":-0.022704169154167175,"43":-0.18123970925807953,"44":0.18998470902442932,"45":0.12347520142793655,"46":0.026913782581686974,"47":0.056288693100214005,"48":0.13658177852630615,"49":0.09958755970001221,"50":0.027586158365011215,"51":-0.007946304976940155,"52":-0.04179278761148453,"53":0.11315598338842392,"54":0.10172603279352188,"55":-0.09395989775657654,"56":-0.08231788873672485,"57":-0.1187748908996582,"58":-0.12104921787977219,"59":-0.044031865894794464,"60":-0.14737281203269958,"61":0.06464502215385437,"62":0.13719961047172546,"63":-0.13784484565258026,"64":-0.04261678829789162,"65":-0.08496738970279694,"66":0.0439256876707077,"67":-0.1256951540708542,"68":0.06272861361503601,"69":-0.09313760697841644,"70":-0.12734206020832062,"71":-0.1439954936504364,"72":0.14298182725906372,"73":-0.048019230365753174,"74":0.043222576379776,"75":-0.08629575371742249,"76":-0.1571117490530014,"77":0.11401289701461792,"78":0.15456734597682953,"79":0.10837115347385406}},"11":{"bias":-0.1533012092113495,"weights":{"0":0.048352573066949844,"1":-0.19571012258529663,"2":0.10352063924074173,"3":-0.09809766709804535,"4":0.1809234768152237,"5":-0.03907071426510811,"6":-0.054532572627067566,"7":-0.18580275774002075,"8":-0.1590341478586197,"9":-0.0076226298697292805,"10":-0.17825546860694885,"11":0.09442947059869766,"12":-0.13351751863956451,"13":0.04818566516041756,"14":-0.1484917402267456,"15":-0.06388422101736069,"16":0.16216298937797546,"17":-0.00274121412076056,"18":-0.0623670369386673,"19":-0.12476582080125809,"20":-0.18766377866268158,"21":0.14125144481658936,"22":0.1815105378627777,"23":0.053167909383773804,"24":0.0659504160284996,"25":-0.07150545716285706,"26":-0.06669507920742035,"27":0.09757211804389954,"28":-0.14864958822727203,"29":-0.06936407089233398,"30":-0.11251091212034225,"31":-0.1799478530883789,"32":0.022430069744586945,"33":0.13595692813396454,"34":-0.17738795280456543,"35":0.14989744126796722,"36":0.0667753666639328,"37":0.039077043533325195,"38":0.030368739739060402,"39":-0.06996206939220428,"40":-0.2003113031387329,"41":0.10642211884260178,"42":0.13992488384246826,"43":0.002772761508822441,"44":-0.06590072810649872,"45":0.11499205231666565,"46":-0.07932804524898529,"47":0.020158296450972557,"48":0.17808827757835388,"49":0.18104928731918335,"50":-0.04747319221496582,"51":-0.014496623538434505,"52":-0.1966012567281723,"53":0.1306373029947281,"54":0.1369018256664276,"55":0.041214894503355026,"56":0.018606556579470634,"57":-0.12189270555973053,"58":0.1486547887325287,"59":-0.12851180136203766,"60":-0.18189319968223572,"61":-0.06980300694704056,"62":0.18399553000926971,"63":-0.13424566388130188,"64":-0.1929982453584671,"65":0.0720331147313118,"66":0.09489332139492035,"67":-0.12167800217866898,"68":0.16623280942440033,"69":0.06953343003988266,"70":-0.16559825837612152,"71":0.11984776705503464,"72":0.010601582005620003,"73":-0.12345791608095169,"74":0.1427171677350998,"75":0.05297989770770073,"76":-0.019128553569316864,"77":0.05188034847378731,"78":0.007618664298206568,"79":0.1441456526517868}},"12":{"bias":-0.007365263067185879,"weights":{"0":-0.09437378495931625,"1":0.06335184723138809,"2":0.002844118280336261,"3":0.03647691756486893,"4":0.016618965193629265,"5":0.10904374718666077,"6":0.012346825562417507,"7":0.14122112095355988,"8":0.11439662426710129,"9":0.14043909311294556,"10":0.19881238043308258,"11":0.055301256477832794,"12":-0.17483294010162354,"13":0.15475772321224213,"14":-0.0746077448129654,"15":0.1789257526397705,"16":-0.1304173320531845,"17":-0.022883791476488113,"18":-0.003443719120696187,"19":0.17144988477230072,"20":-0.173446387052536,"21":0.08305904269218445,"22":-0.12705011665821075,"23":-0.049541175365448,"24":0.09263093024492264,"25":-0.03676512837409973,"26":0.09575089067220688,"27":-0.09426835179328918,"28":0.007433438207954168,"29":0.08788837492465973,"30":0.016839994117617607,"31":0.032876331359148026,"32":0.019345257431268692,"33":-0.15534630417823792,"34":-0.17819011211395264,"35":-0.08606439083814621,"36":-0.014355034567415714,"37":-0.08997794985771179,"38":-0.062344543635845184,"39":-0.005727443844079971,"40":0.01312244776636362,"41":0.04418186843395233,"42":0.13178753852844238,"43":0.004389052279293537,"44":-0.039942510426044464,"45":-0.1924281269311905,"46":-0.0233957190066576,"47":-0.0072462549433112144,"48":0.10364675521850586,"49":-0.04471810162067413,"50":-0.13241325318813324,"51":0.08664645999670029,"52":-0.1021951287984848,"53":-0.09815849363803864,"54":-0.050375357270240784,"55":-0.10336150228977203,"56":0.1975650191307068,"57":0.06888264417648315,"58":0.15431906282901764,"59":0.12831661105155945,"60":-0.14175564050674438,"61":0.14596842229366302,"62":-0.013671445660293102,"63":-0.016911165788769722,"64":-0.0818479135632515,"65":0.03920961543917656,"66":0.14654523134231567,"67":-0.13818764686584473,"68":-0.19160808622837067,"69":-0.16129133105278015,"70":-0.13659559190273285,"71":-0.10628364235162735,"72":-0.16444402933120728,"73":-0.12464091181755066,"74":0.09118527919054031,"75":0.09014862775802612,"76":0.15512073040008545,"77":-0.17144745588302612,"78":-0.035206448286771774,"79":0.1611621230840683}},"13":{"bias":-0.12842880189418793,"weights":{"0":-0.02800324559211731,"1":0.04596521332859993,"2":0.06685745716094971,"3":0.089414082467556,"4":0.1242227703332901,"5":0.145895853638649,"6":-0.03344407677650452,"7":0.09721070528030396,"8":0.1631426066160202,"9":0.1318570226430893,"10":0.1155635416507721,"11":0.15248370170593262,"12":0.18801862001419067,"13":0.14576488733291626,"14":-0.029541995376348495,"15":0.08954386413097382,"16":-0.19777913391590118,"17":-0.18986685574054718,"18":0.18818169832229614,"19":-0.12986229360103607,"20":-0.17778022587299347,"21":0.09694185107946396,"22":0.1782764196395874,"23":0.19333770871162415,"24":-0.20217826962471008,"25":-0.050956398248672485,"26":0.15156665444374084,"27":0.002073813695460558,"28":0.13756413757801056,"29":-0.1414164900779724,"30":-0.03314628452062607,"31":-0.18774215877056122,"32":0.05254189670085907,"33":0.08707103133201599,"34":-0.031656112521886826,"35":-0.1926264762878418,"36":0.06467950344085693,"37":-0.1855827420949936,"38":0.11263779550790787,"39":0.1841619908809662,"40":0.04478241503238678,"41":0.09611682593822479,"42":-0.19256725907325745,"43":0.029499920085072517,"44":-0.03724432364106178,"45":0.04749293997883797,"46":0.05851123481988907,"47":-0.12977354228496552,"48":0.09226318448781967,"49":0.011809166520833969,"50":-0.007263548672199249,"51":0.08418306708335876,"52":0.16771380603313446,"53":-0.2009323388338089,"54":-0.05913378670811653,"55":-0.03148340433835983,"56":-0.08211565762758255,"57":-0.05693000182509422,"58":-0.01991909183561802,"59":-0.16931277513504028,"60":0.010347933508455753,"61":0.1838066726922989,"62":-0.06242814660072327,"63":-0.18124854564666748,"64":-0.163608580827713,"65":0.1955028474330902,"66":0.15115250647068024,"67":0.12408673763275146,"68":-0.010877118445932865,"69":0.13065539300441742,"70":-0.14072966575622559,"71":0.17344996333122253,"72":0.03817230835556984,"73":-0.08696823567152023,"74":0.12791284918785095,"75":-0.017836274579167366,"76":0.05204440653324127,"77":-0.1547093242406845,"78":-0.03608987107872963,"79":-0.12247996777296066}},"14":{"bias":0.017031265422701836,"weights":{"0":-0.03971051424741745,"1":-0.11175081878900528,"2":-0.14860081672668457,"3":0.12716956436634064,"4":0.11561420559883118,"5":0.14519309997558594,"6":0.10397285968065262,"7":0.08233824372291565,"8":0.18495787680149078,"9":-0.13841475546360016,"10":-0.08929390460252762,"11":-0.05353453755378723,"12":0.08462347835302353,"13":-0.1708006113767624,"14":0.10401040315628052,"15":-0.1022239625453949,"16":-0.08358071744441986,"17":-0.09958148747682571,"18":0.140093594789505,"19":-0.17853398621082306,"20":0.08576513081789017,"21":0.03623703867197037,"22":-0.1650385856628418,"23":0.08012755215167999,"24":0.01702861115336418,"25":-0.17735202610492706,"26":0.06530093401670456,"27":0.07295921444892883,"28":0.19534410536289215,"29":-0.17307043075561523,"30":0.2014976143836975,"31":-0.009154784493148327,"32":0.16603566706180573,"33":0.11417889595031738,"34":0.04290267825126648,"35":-0.17395232617855072,"36":-0.14980947971343994,"37":-0.08843684941530228,"38":0.13567732274532318,"39":-0.0012022239388898015,"40":-0.01847986690700054,"41":-0.01941775716841221,"42":-0.06135176494717598,"43":-0.0499507337808609,"44":0.11319204419851303,"45":0.135978564620018,"46":0.20058289170265198,"47":0.11813950538635254,"48":0.1866525113582611,"49":0.07915002107620239,"50":-0.15836749970912933,"51":-0.11712946742773056,"52":-0.1083642914891243,"53":-0.09712649136781693,"54":0.04361844062805176,"55":0.1859760284423828,"56":-0.04044109955430031,"57":0.12288524955511093,"58":-0.17317894101142883,"59":0.1667756289243698,"60":-0.016933271661400795,"61":0.09538086503744125,"62":-0.1287449300289154,"63":-0.1109330952167511,"64":0.018513686954975128,"65":0.010769395157694817,"66":-0.15215134620666504,"67":-0.10412485152482986,"68":-0.07817066460847855,"69":-0.06486943364143372,"70":-0.05725649371743202,"71":0.02750851958990097,"72":-0.18061071634292603,"73":-0.18870608508586884,"74":0.18794719874858856,"75":0.17366687953472137,"76":-0.02077891305088997,"77":0.06959772855043411,"78":0.16704167425632477,"79":0.15590956807136536}},"15":{"bias":0.18027743697166443,"weights":{"0":0.1146894097328186,"1":0.19752779603004456,"2":-0.0980466827750206,"3":0.10530570149421692,"4":-0.06078597903251648,"5":0.05782332271337509,"6":0.001496609183959663,"7":0.1726529598236084,"8":-0.052792344242334366,"9":-0.06623385846614838,"10":0.19987857341766357,"11":0.06365875154733658,"12":-0.1308477371931076,"13":0.16352017223834991,"14":-0.033099234104156494,"15":-0.08768125623464584,"16":0.07605014741420746,"17":-0.11269299685955048,"18":-0.13219566643238068,"19":0.09783495962619781,"20":-0.01769394800066948,"21":-0.05550498515367508,"22":0.07547313719987869,"23":0.09320042282342911,"24":0.1653176248073578,"25":0.1943696141242981,"26":0.06396859139204025,"27":0.19505232572555542,"28":-0.15101149678230286,"29":0.13846194744110107,"30":-0.183480903506279,"31":0.1048118993639946,"32":-0.013289558701217175,"33":0.08611050248146057,"34":0.12263742834329605,"35":0.07209853827953339,"36":-0.1408666968345642,"37":-0.1341068148612976,"38":-0.13701385259628296,"39":-0.1278005689382553,"40":-0.03066374361515045,"41":0.14879563450813293,"42":-0.14435459673404694,"43":0.10643947869539261,"44":0.10870741307735443,"45":-0.11586973071098328,"46":0.015355891548097134,"47":-0.09742455929517746,"48":0.13993103802204132,"49":-0.06399963796138763,"50":0.04427766799926758,"51":0.1744859516620636,"52":0.029285689815878868,"53":0.060211703181266785,"54":0.09662580490112305,"55":0.18810239434242249,"56":-0.10830812901258469,"57":-0.14760611951351166,"58":-0.04509788751602173,"59":-0.011914040893316269,"60":-0.01765517331659794,"61":-0.12217218428850174,"62":-0.16836486756801605,"63":0.06804776936769485,"64":-0.07183803617954254,"65":-0.14090093970298767,"66":0.08447293192148209,"67":-0.06716066598892212,"68":-0.1737406998872757,"69":-0.15800398588180542,"70":-0.034252386540174484,"71":0.1842929571866989,"72":0.1247914582490921,"73":-0.07702794671058655,"74":-0.032155364751815796,"75":-0.12231417000293732,"76":0.08636561781167984,"77":-0.1574184149503708,"78":0.09990540891885757,"79":-0.05900116264820099}},"16":{"bias":0.06602206081151962,"weights":{"0":-0.17273712158203125,"1":-0.13591305911540985,"2":-0.20101472735404968,"3":-0.1793753206729889,"4":-0.13893957436084747,"5":-0.007908500730991364,"6":-0.07178765535354614,"7":-0.1431090086698532,"8":0.14796270430088043,"9":0.08809982985258102,"10":0.08559883385896683,"11":-0.10096926242113113,"12":-0.13460823893547058,"13":-0.12027642130851746,"14":-0.15927214920520782,"15":-0.050380151718854904,"16":0.05032626911997795,"17":-0.15160825848579407,"18":0.07114378362894058,"19":-0.12925204634666443,"20":0.023211795836687088,"21":-0.18382494151592255,"22":-0.07395908236503601,"23":0.05127060040831566,"24":-0.04990716278553009,"25":0.16853150725364685,"26":0.1755474954843521,"27":-0.06540583074092865,"28":-0.16292008757591248,"29":-0.0642344132065773,"30":0.12550319731235504,"31":0.05700117349624634,"32":0.007264199201017618,"33":-0.018767939880490303,"34":0.09938695281744003,"35":-0.0386885441839695,"36":-0.00785369798541069,"37":-0.182857483625412,"38":0.16164740920066833,"39":-0.08789116144180298,"40":0.0020709307864308357,"41":-0.19347885251045227,"42":-0.03101901337504387,"43":-0.0064882817678153515,"44":0.1699889600276947,"45":0.19050483405590057,"46":0.06738356500864029,"47":-0.07939127087593079,"48":0.03151141479611397,"49":0.012228759005665779,"50":0.1415577530860901,"51":-0.17738564312458038,"52":0.04502418637275696,"53":-0.11030623316764832,"54":0.14075224101543427,"55":-0.11045560985803604,"56":-0.15732011198997498,"57":0.1912357211112976,"58":-0.1664968580007553,"59":-0.08359244465827942,"60":0.06353553384542465,"61":0.1152329370379448,"62":0.006356020923703909,"63":-0.04293590784072876,"64":0.13704918324947357,"65":-0.19589053094387054,"66":0.14175796508789062,"67":-0.043353572487831116,"68":0.027040431275963783,"69":-0.06080356612801552,"70":-0.006921953521668911,"71":0.05910177901387215,"72":-0.025131473317742348,"73":0.029971642419695854,"74":-0.0782516747713089,"75":0.16361527144908905,"76":-0.19729402661323547,"77":0.05815635994076729,"78":-0.1657930165529251,"79":0.16691507399082184}},"17":{"bias":-0.08794072270393372,"weights":{"0":-0.0297123771160841,"1":-0.005245869047939777,"2":0.1283622533082962,"3":-0.15988771617412567,"4":-0.05176949501037598,"5":0.20119862258434296,"6":0.02891484461724758,"7":0.11617211252450943,"8":0.13905467092990875,"9":-0.1388644129037857,"10":0.21242082118988037,"11":0.11691742390394211,"12":0.139723002910614,"13":-0.05900294706225395,"14":0.028258254751563072,"15":-0.12343466281890869,"16":0.04632247984409332,"17":-0.15201368927955627,"18":0.10051625967025757,"19":0.0011754641309380531,"20":0.014582178555428982,"21":0.19881848990917206,"22":-0.15301914513111115,"23":-0.08541464805603027,"24":0.16322380304336548,"25":0.06759730726480484,"26":-0.02506178431212902,"27":-0.02456970326602459,"28":-0.18939897418022156,"29":0.03457527607679367,"30":-0.00126216234639287,"31":0.04924337938427925,"32":0.05918774753808975,"33":-0.06941431760787964,"34":-0.11991292983293533,"35":0.09793782234191895,"36":-0.10763295739889145,"37":-0.08219225704669952,"38":0.16543881595134735,"39":0.17066708207130432,"40":-0.016178447753190994,"41":0.11418332904577255,"42":0.15925487875938416,"43":-0.15527085959911346,"44":-0.12062923610210419,"45":-0.13272665441036224,"46":-0.11119166016578674,"47":-0.16827358305454254,"48":-0.1622842401266098,"49":-0.07965262234210968,"50":-0.13664011657238007,"51":-0.14094358682632446,"52":-0.13728997111320496,"53":-0.045178934931755066,"54":-0.13416872918605804,"55":-0.009697494097054005,"56":0.025070814415812492,"57":-0.07949310541152954,"58":0.09971359372138977,"59":-0.012476300820708275,"60":0.012459395453333855,"61":0.19449734687805176,"62":-0.059489358216524124,"63":0.08619419485330582,"64":-0.13916485011577606,"65":0.07810144871473312,"66":-0.06622366607189178,"67":-0.17434096336364746,"68":0.11640232801437378,"69":-0.006321360822767019,"70":-0.05897185578942299,"71":0.01229934860020876,"72":0.011362980119884014,"73":0.06709080189466476,"74":-0.15119054913520813,"75":0.043350521475076675,"76":-0.18130141496658325,"77":0.0010870159603655338,"78":-0.03015993908047676,"79":0.13693688809871674}},"18":{"bias":0.06034555658698082,"weights":{"0":-0.15227645635604858,"1":-0.10909856110811234,"2":-0.09481914341449738,"3":-0.12790438532829285,"4":0.03318076208233833,"5":-0.09756788611412048,"6":0.1873038113117218,"7":0.1433931142091751,"8":0.07904458791017532,"9":-0.13678963482379913,"10":-0.02544396184384823,"11":0.09339749813079834,"12":0.03037429042160511,"13":-0.025670241564512253,"14":-0.134677454829216,"15":0.18869847059249878,"16":-0.058327335864305496,"17":0.06954096257686615,"18":-0.022083844989538193,"19":0.09844248741865158,"20":0.04274572804570198,"21":-0.011946151964366436,"22":-0.15889577567577362,"23":-0.1732366681098938,"24":0.006185206584632397,"25":0.15732111036777496,"26":-0.0808892771601677,"27":-0.0659928023815155,"28":0.07688826322555542,"29":-0.186762273311615,"30":-0.05338393896818161,"31":-0.18699531257152557,"32":-0.11210466921329498,"33":-0.17615638673305511,"34":0.10782720148563385,"35":-0.18620383739471436,"36":-0.11506616324186325,"37":-0.03817223757505417,"38":-0.04672517254948616,"39":-0.13963495194911957,"40":0.01067553274333477,"41":-0.07187634706497192,"42":0.05123347416520119,"43":0.1486739069223404,"44":0.003172418102622032,"45":0.10080772638320923,"46":-0.011827842332422733,"47":-0.0900997668504715,"48":-0.02234012633562088,"49":-0.15118129551410675,"50":-0.1137998104095459,"51":0.09750957787036896,"52":-0.04941171780228615,"53":-0.19816192984580994,"54":-0.059302035719156265,"55":-0.004445595666766167,"56":0.13219548761844635,"57":0.038716793060302734,"58":-0.06437645852565765,"59":0.03162185475230217,"60":-0.15825210511684418,"61":0.18215323984622955,"62":-0.16400739550590515,"63":-0.1389627605676651,"64":0.028350552543997765,"65":0.14218659698963165,"66":0.07797146588563919,"67":0.10900475084781647,"68":0.09294823557138443,"69":-0.06379362940788269,"70":0.15822331607341766,"71":-0.025244727730751038,"72":0.18615944683551788,"73":0.15816523134708405,"74":-0.06306418031454086,"75":-0.13047882914543152,"76":0.10023516416549683,"77":-0.06674966961145401,"78":-0.15171417593955994,"79":-0.019803408533334732}},"19":{"bias":-0.13867996633052826,"weights":{"0":-0.1063646748661995,"1":0.05302850157022476,"2":-0.182881161570549,"3":-0.12328071147203445,"4":0.07457724958658218,"5":0.08398707956075668,"6":0.18755455315113068,"7":0.10762272030115128,"8":0.1736810803413391,"9":0.10042671114206314,"10":-0.061478905379772186,"11":-0.16149704158306122,"12":-0.10225369781255722,"13":-0.012324687093496323,"14":0.002526316326111555,"15":0.05083524063229561,"16":0.014240548014640808,"17":-0.035938810557127,"18":-0.18117806315422058,"19":0.17730875313282013,"20":-0.021900104358792305,"21":-0.016452625393867493,"22":-0.04170732572674751,"23":0.15126952528953552,"24":0.1114768385887146,"25":0.019764801487326622,"26":0.038840845227241516,"27":0.04194383695721626,"28":0.005421754904091358,"29":-0.05746321752667427,"30":0.03039976768195629,"31":-0.0637725293636322,"32":-0.005187559872865677,"33":-0.1075374037027359,"34":0.13747470080852509,"35":0.12760040163993835,"36":0.14620889723300934,"37":0.09373193979263306,"38":-0.055869244039058685,"39":0.11182047426700592,"40":0.09284798055887222,"41":-0.0508093424141407,"42":0.08135292679071426,"43":-0.08830975741147995,"44":-0.10949543118476868,"45":-0.1460266411304474,"46":-0.04801894351840019,"47":0.06489615887403488,"48":-0.02696748450398445,"49":0.17965306341648102,"50":-0.13065381348133087,"51":-0.08819004893302917,"52":-0.015821322798728943,"53":0.10309431701898575,"54":-0.004826142452657223,"55":0.07214464247226715,"56":0.13801127672195435,"57":0.19168895483016968,"58":0.11260396242141724,"59":0.0015074448892846704,"60":0.10758952796459198,"61":-0.10617338865995407,"62":0.19334149360656738,"63":-0.14336438477039337,"64":0.02923988364636898,"65":-0.11974122375249863,"66":-0.003210129216313362,"67":0.017209485173225403,"68":0.1868002861738205,"69":-0.13260869681835175,"70":0.13917720317840576,"71":0.15864886343479156,"72":0.001005055964924395,"73":0.001227288506925106,"74":0.04924249276518822,"75":-0.07051970809698105,"76":-0.1683049499988556,"77":-0.16215068101882935,"78":0.128218412399292,"79":0.03414235636591911}},"20":{"bias":-0.11844382435083389,"weights":{"0":-0.11754396557807922,"1":0.20650790631771088,"2":0.08715691417455673,"3":-0.046513546258211136,"4":-0.016500193625688553,"5":-0.04294179752469063,"6":-0.01763732358813286,"7":0.1336175948381424,"8":-0.1924477219581604,"9":-0.011230144649744034,"10":0.1663111001253128,"11":-0.024965684860944748,"12":-0.1298866719007492,"13":0.09562112390995026,"14":-0.06186626851558685,"15":-0.14430929720401764,"16":-0.04949001967906952,"17":-0.10441341996192932,"18":-0.1487213373184204,"19":0.026485804468393326,"20":0.006536894012242556,"21":0.19918443262577057,"22":0.17795267701148987,"23":0.14156948029994965,"24":-0.14702613651752472,"25":-0.12850220501422882,"26":-0.08209217339754105,"27":-0.1317339986562729,"28":-0.153545081615448,"29":0.0953308716416359,"30":0.1423667073249817,"31":0.11037479341030121,"32":0.0655185729265213,"33":0.05254385620355606,"34":-0.060660410672426224,"35":-0.15556040406227112,"36":-0.17462782561779022,"37":-0.043828777968883514,"38":0.055778056383132935,"39":0.056002140045166016,"40":-0.14560572803020477,"41":-0.03353394195437431,"42":0.06905143707990646,"43":0.09301181137561798,"44":-0.19108819961547852,"45":0.15862099826335907,"46":-0.11988794058561325,"47":-0.17020811140537262,"48":-0.09027591347694397,"49":-0.08889792114496231,"50":-0.013416280038654804,"51":-0.10595894604921341,"52":-0.0982728824019432,"53":0.03783367946743965,"54":-0.011026001535356045,"55":-0.0029744876082986593,"56":0.19895140826702118,"57":-0.0984066054224968,"58":0.16343827545642853,"59":0.1175166442990303,"60":0.001647895434871316,"61":-0.07510988414287567,"62":-0.16584481298923492,"63":0.08217474073171616,"64":-0.08669282495975494,"65":-0.14253461360931396,"66":-0.16688494384288788,"67":-0.14689360558986664,"68":0.04320286586880684,"69":0.05073961615562439,"70":-0.055252060294151306,"71":-0.011076082475483418,"72":-0.05732553452253342,"73":0.16006645560264587,"74":0.19640374183654785,"75":-0.18627451360225677,"76":0.04617979750037193,"77":0.09830173850059509,"78":-0.06695018708705902,"79":0.08017722517251968}},"21":{"bias":0.15169914066791534,"weights":{"0":0.1351991444826126,"1":-0.009931404143571854,"2":-0.1981874406337738,"3":0.12735238671302795,"4":0.16729611158370972,"5":0.04736156389117241,"6":0.05206044018268585,"7":0.1975296586751938,"8":-0.12650303542613983,"9":0.06077125295996666,"10":-0.002128628082573414,"11":-0.15390430390834808,"12":0.09500513970851898,"13":0.18525180220603943,"14":0.006052571348845959,"15":0.002375019947066903,"16":-0.1957647204399109,"17":0.16631323099136353,"18":-0.19118404388427734,"19":-0.10359746217727661,"20":-0.13942033052444458,"21":0.06438221782445908,"22":0.09533476084470749,"23":0.08134671300649643,"24":0.12483374029397964,"25":0.11344138532876968,"26":0.14825758337974548,"27":-0.007874994538724422,"28":-0.06015176698565483,"29":0.05346200615167618,"30":-0.00701240124180913,"31":0.16984455287456512,"32":-0.014752143993973732,"33":-0.14574339985847473,"34":0.1840285360813141,"35":-0.15287968516349792,"36":0.016861217096447945,"37":0.17329151928424835,"38":-0.17370814085006714,"39":-0.17871305346488953,"40":-0.10545782744884491,"41":0.09648797661066055,"42":0.08407897502183914,"43":-0.09541226923465729,"44":0.11822320520877838,"45":0.17796774208545685,"46":-0.12198107689619064,"47":-0.1860421746969223,"48":0.1095317080616951,"49":0.1960209608078003,"50":0.02066960372030735,"51":-0.04664440080523491,"52":-0.1012001633644104,"53":-0.1320292204618454,"54":0.19665484130382538,"55":-0.038010332733392715,"56":0.14399699866771698,"57":0.11136959493160248,"58":0.033607374876737595,"59":0.07328826934099197,"60":0.09842144697904587,"61":-0.1826978623867035,"62":-0.09155719727277756,"63":-0.15474386513233185,"64":0.12263499200344086,"65":-0.129844531416893,"66":-0.00411664042621851,"67":0.1336880624294281,"68":-0.02225041203200817,"69":0.009707469493150711,"70":0.05566839501261711,"71":0.12893755733966827,"72":-0.1965600848197937,"73":-0.03447991609573364,"74":-0.19928376376628876,"75":-0.1516726166009903,"76":0.09481661021709442,"77":0.031125202775001526,"78":-0.14876465499401093,"79":-0.04122446849942207}},"22":{"bias":-0.012864802032709122,"weights":{"0":0.15900355577468872,"1":-0.16376563906669617,"2":-0.1817319691181183,"3":0.035630472004413605,"4":0.026644205674529076,"5":-0.05996380373835564,"6":0.07387615740299225,"7":-0.13981547951698303,"8":-0.012440172955393791,"9":-0.07556288689374924,"10":-0.04673296958208084,"11":0.08740226924419403,"12":0.18484677374362946,"13":-0.19441284239292145,"14":-0.19155222177505493,"15":0.1212158203125,"16":0.13280947506427765,"17":0.036876846104860306,"18":0.07544019818305969,"19":-0.1338261216878891,"20":0.19182318449020386,"21":0.07158403098583221,"22":-0.012893899343907833,"23":-0.05670281499624252,"24":-0.043383631855249405,"25":0.1430557817220688,"26":0.02112666517496109,"27":-0.1576814502477646,"28":-0.17277681827545166,"29":0.17284849286079407,"30":0.0315568670630455,"31":0.11349355429410934,"32":0.03074580244719982,"33":0.10667335987091064,"34":-0.0743015855550766,"35":0.08827781677246094,"36":-0.11410107463598251,"37":0.04271101579070091,"38":-0.18988186120986938,"39":0.13799415528774261,"40":-0.10622547566890717,"41":0.16688774526119232,"42":0.12639980018138885,"43":0.006926075555384159,"44":0.04262431338429451,"45":-0.15421262383460999,"46":-0.12958794832229614,"47":-0.07766424864530563,"48":-0.04593433439731598,"49":0.16143232583999634,"50":-0.14777369797229767,"51":0.06338655948638916,"52":-0.15607430040836334,"53":-0.05908560752868652,"54":-0.1663440316915512,"55":0.08727013319730759,"56":0.07349792122840881,"57":-0.05927527695894241,"58":-0.08227458596229553,"59":-0.10220572352409363,"60":0.1563572883605957,"61":0.09745047241449356,"62":0.13242845237255096,"63":-0.1861039251089096,"64":0.008987476117908955,"65":0.0025289326440542936,"66":0.1042061373591423,"67":-0.17108966410160065,"68":0.1497538536787033,"69":0.14260393381118774,"70":0.07433275133371353,"71":-0.04874338582158089,"72":0.03205415979027748,"73":-0.10406491905450821,"74":0.16777253150939941,"75":0.15547093749046326,"76":-0.12889185547828674,"77":0.04289664328098297,"78":-0.15833283960819244,"79":0.07233826071023941}},"23":{"bias":-0.00616532564163208,"weights":{"0":-0.08287186175584793,"1":0.15564002096652985,"2":0.18257620930671692,"3":-0.17352336645126343,"4":0.12671254575252533,"5":-0.05621042475104332,"6":0.021087845787405968,"7":0.09768465161323547,"8":0.20753908157348633,"9":0.12328504770994186,"10":0.03097570687532425,"11":0.004533314611762762,"12":0.12974926829338074,"13":-0.1599656045436859,"14":-0.10680442303419113,"15":0.0974733978509903,"16":-0.032138191163539886,"17":-0.09566635638475418,"18":-0.16696177423000336,"19":0.15284249186515808,"20":-0.10148600488901138,"21":-0.09175268560647964,"22":-0.15263527631759644,"23":-0.14192694425582886,"24":0.07266668230295181,"25":0.19759508967399597,"26":-0.047558803111314774,"27":0.06480008363723755,"28":-0.05982039496302605,"29":-0.040014173835515976,"30":0.13373734056949615,"31":-0.038433268666267395,"32":0.1270519495010376,"33":-0.18530181050300598,"34":0.05342285335063934,"35":0.08829052746295929,"36":0.06325265765190125,"37":-0.020254027098417282,"38":-0.07619928568601608,"39":0.19294962286949158,"40":-0.1719270795583725,"41":-0.03715921938419342,"42":0.13355912268161774,"43":0.0010572735918685794,"44":-0.17319130897521973,"45":-0.19405080378055573,"46":-0.15379540622234344,"47":-0.04084495082497597,"48":0.02037581242620945,"49":0.15967373549938202,"50":-0.05824768915772438,"51":0.06859323382377625,"52":-0.13831770420074463,"53":0.061665765941143036,"54":0.18458445370197296,"55":-0.14598655700683594,"56":0.1427134871482849,"57":-0.07318872958421707,"58":0.06849300116300583,"59":0.1497095376253128,"60":-0.0954526886343956,"61":-0.19143886864185333,"62":0.11359182000160217,"63":-0.186899796128273,"64":-0.14878319203853607,"65":0.10754013806581497,"66":0.09223924577236176,"67":-0.1619553416967392,"68":0.12131602317094803,"69":-0.05729808658361435,"70":0.09165022522211075,"71":-0.1566154956817627,"72":-0.1819913387298584,"73":-0.1397978663444519,"74":-0.04064879193902016,"75":0.08321322500705719,"76":0.015019938349723816,"77":-0.10176131129264832,"78":-0.13068027794361115,"79":-0.04896756634116173}},"24":{"bias":0.055752672255039215,"weights":{"0":-0.1562088131904602,"1":0.04573582485318184,"2":0.0068847909569740295,"3":0.08419619500637054,"4":0.1480879783630371,"5":0.16854777932167053,"6":-0.08074542880058289,"7":-0.08741962909698486,"8":0.07814531773328781,"9":0.07563833892345428,"10":0.016590865328907967,"11":0.07782331854104996,"12":-0.19158683717250824,"13":0.16261602938175201,"14":0.13732697069644928,"15":-0.1790951043367386,"16":-0.10191110521554947,"17":-0.050079457461833954,"18":-0.12627311050891876,"19":-0.06375046074390411,"20":-0.10228831321001053,"21":-0.009644737467169762,"22":0.051359839737415314,"23":0.10757080465555191,"24":-0.04780431091785431,"25":-0.1220671609044075,"26":-0.06676722317934036,"27":0.03224635496735573,"28":0.13375063240528107,"29":-0.02539852261543274,"30":0.18459735810756683,"31":-0.033613260835409164,"32":-0.09794704616069794,"33":-0.13322360813617706,"34":-0.025263546034693718,"35":-0.07031401246786118,"36":-0.026269691064953804,"37":-0.10422345995903015,"38":0.024984532967209816,"39":0.05984019488096237,"40":-0.0984606072306633,"41":0.061149246990680695,"42":0.02500510960817337,"43":0.10046695172786713,"44":-0.07419586181640625,"45":-0.06433027982711792,"46":0.1966976523399353,"47":-0.15938279032707214,"48":-0.06747204065322876,"49":-0.13959237933158875,"50":-0.19099751114845276,"51":-0.16682010889053345,"52":-0.004390351939946413,"53":0.08404790610074997,"54":0.11959158629179001,"55":0.03343138098716736,"56":-0.180379718542099,"57":0.17826084792613983,"58":0.13444890081882477,"59":-0.015886463224887848,"60":-0.018567543476819992,"61":0.03308945149183273,"62":0.18511004745960236,"63":0.07324187457561493,"64":0.16387911140918732,"65":0.015406200662255287,"66":-0.17662188410758972,"67":-0.18335376679897308,"68":0.16182194650173187,"69":0.004628207068890333,"70":-0.19162224233150482,"71":0.03196370229125023,"72":-0.05389047786593437,"73":-0.12714427709579468,"74":0.023177023977041245,"75":0.11410672217607498,"76":0.022612137719988823,"77":0.17094303667545319,"78":0.053990438580513,"79":0.15558920800685883}},"25":{"bias":-0.17376895248889923,"weights":{"0":0.12487567961215973,"1":-0.12793369591236115,"2":-0.19493597745895386,"3":0.07480832934379578,"4":0.07883074134588242,"5":-0.0567798875272274,"6":-0.05173875391483307,"7":0.07824963331222534,"8":0.0924825444817543,"9":0.10781457275152206,"10":0.18417614698410034,"11":0.01821453683078289,"12":-0.17713579535484314,"13":-0.15090450644493103,"14":0.13782335817813873,"15":-0.09392895549535751,"16":0.03375629335641861,"17":0.07912179082632065,"18":0.02373894490301609,"19":0.18757067620754242,"20":-0.10619130730628967,"21":0.03097946010529995,"22":-0.14878787100315094,"23":0.009697146713733673,"24":0.18477337062358856,"25":-0.04212643578648567,"26":0.17028221487998962,"27":0.07580424100160599,"28":0.10129519551992416,"29":0.13167336583137512,"30":0.00014712665870320052,"31":-0.03484039753675461,"32":-0.11270002275705338,"33":-0.15223801136016846,"34":0.15085668861865997,"35":-0.01244797371327877,"36":0.0571831539273262,"37":-0.026210686191916466,"38":0.14810603857040405,"39":-0.06393397599458694,"40":-0.17134428024291992,"41":-0.045414768159389496,"42":0.08801527321338654,"43":-0.0724782645702362,"44":-0.0032926227431744337,"45":-0.1645357757806778,"46":-0.010560892522335052,"47":-0.07113447785377502,"48":0.11319271475076675,"49":0.19160489737987518,"50":-0.17166225612163544,"51":-0.16398507356643677,"52":0.15959852933883667,"53":-0.07673560827970505,"54":0.040056873112916946,"55":0.18378929793834686,"56":-0.1336050033569336,"57":0.10086886584758759,"58":-0.11978213489055634,"59":0.15863323211669922,"60":-0.006649619899690151,"61":0.1270761936903,"62":0.1797621250152588,"63":-0.04011673107743263,"64":-0.17736957967281342,"65":0.11771361529827118,"66":0.08091608434915543,"67":0.0008402781677432358,"68":-0.04807165265083313,"69":-0.16616640985012054,"70":0.0893089696764946,"71":0.15147678554058075,"72":-0.17215855419635773,"73":-0.12704387307167053,"74":-0.03870866820216179,"75":0.07449951022863388,"76":0.07193797081708908,"77":-0.16416096687316895,"78":-0.11799416691064835,"79":0.06125553697347641}},"26":{"bias":0.019177570939064026,"weights":{"0":-0.13503767549991608,"1":0.04364793747663498,"2":-0.051464200019836426,"3":-0.04310810938477516,"4":-0.19926387071609497,"5":0.06941165775060654,"6":-0.1894129514694214,"7":0.02067813277244568,"8":-0.12877759337425232,"9":0.19327163696289062,"10":0.04826008155941963,"11":0.0439339317381382,"12":0.020541416481137276,"13":-0.18244236707687378,"14":0.08176669478416443,"15":0.1130269318819046,"16":0.16438350081443787,"17":-0.05771580711007118,"18":-0.047590307891368866,"19":-0.17668727040290833,"20":0.15379777550697327,"21":-0.032856933772563934,"22":0.029762959107756615,"23":0.06025964766740799,"24":-0.012779505923390388,"25":0.01406501978635788,"26":-0.07226695120334625,"27":0.14888620376586914,"28":-0.0680856704711914,"29":0.17866113781929016,"30":0.13399940729141235,"31":-0.19377455115318298,"32":-0.04786030575633049,"33":0.11064109951257706,"34":0.02451138012111187,"35":-0.19193284213542938,"36":-0.1457606852054596,"37":-0.11202148348093033,"38":0.08595006167888641,"39":0.062212876975536346,"40":-0.04085388034582138,"41":-0.09155404567718506,"42":0.12647555768489838,"43":-0.10932832956314087,"44":-0.06990204751491547,"45":0.1882673054933548,"46":-0.07410954684019089,"47":-0.17930585145950317,"48":-0.0874580591917038,"49":-0.18635712563991547,"50":-0.042462803423404694,"51":0.12836885452270508,"52":-0.1416538506746292,"53":-0.07914574444293976,"54":0.12956291437149048,"55":0.16525040566921234,"56":0.1884157359600067,"57":-0.018070552498102188,"58":-0.16578638553619385,"59":0.13192661106586456,"60":0.0039597018621861935,"61":-0.01643647812306881,"62":0.07797355949878693,"63":-0.13966849446296692,"64":0.08364163339138031,"65":-0.09136329591274261,"66":-0.040110569447278976,"67":0.07791103422641754,"68":-0.189914733171463,"69":-0.0006188604747876525,"70":-0.1740424931049347,"71":-0.1768544614315033,"72":-0.14838774502277374,"73":0.1633082777261734,"74":0.07323107123374939,"75":-0.11283187568187714,"76":0.15557168424129486,"77":-0.11404594033956528,"78":-0.03278082609176636,"79":0.02687370777130127}},"27":{"bias":-0.17690636217594147,"weights":{"0":0.17850401997566223,"1":-0.06309451907873154,"2":-0.12542858719825745,"3":-0.15402023494243622,"4":-0.07404942065477371,"5":0.12124031782150269,"6":-0.1596880704164505,"7":-0.0004882370412815362,"8":-0.05762426555156708,"9":0.06982851028442383,"10":0.16893023252487183,"11":0.03459453210234642,"12":-0.1281450390815735,"13":0.09875093400478363,"14":0.0680374801158905,"15":-0.10249672085046768,"16":0.008230253122746944,"17":-0.15473757684230804,"18":-0.1800893396139145,"19":-0.11593291908502579,"20":0.17936795949935913,"21":-0.008084820583462715,"22":-0.14129087328910828,"23":0.05976749584078789,"24":-0.0611533485352993,"25":-0.04594440758228302,"26":0.011976695619523525,"27":0.024814756587147713,"28":-0.016470706090331078,"29":-0.08559872955083847,"30":-0.1866203099489212,"31":-0.05843021348118782,"32":-0.06509184837341309,"33":-0.13564258813858032,"34":-0.15977239608764648,"35":-0.08925129473209381,"36":0.15911036729812622,"37":-0.1485280990600586,"38":0.0853765532374382,"39":-0.19568602740764618,"40":0.16400757431983948,"41":-0.09933006763458252,"42":-0.022149262949824333,"43":-0.030139071866869926,"44":-0.07858368754386902,"45":0.18808723986148834,"46":-0.09403258562088013,"47":-0.0653470978140831,"48":-0.015892967581748962,"49":-0.011783529072999954,"50":0.10173868387937546,"51":0.14936555922031403,"52":-0.10371116548776627,"53":0.062411993741989136,"54":0.13975092768669128,"55":0.17257146537303925,"56":-0.013171388767659664,"57":-0.1274905800819397,"58":-0.17278657853603363,"59":0.004494098015129566,"60":0.07575611770153046,"61":0.11277468502521515,"62":-0.0533289760351181,"63":-0.10091915726661682,"64":-0.03714481368660927,"65":-0.048351943492889404,"66":0.023132048547267914,"67":-0.167282372713089,"68":0.07212013751268387,"69":-0.019367463886737823,"70":-0.14399810135364532,"71":-0.11520423740148544,"72":0.12477908283472061,"73":0.00970922876149416,"74":-0.16070543229579926,"75":0.013761226087808609,"76":0.18804094195365906,"77":-0.005571985617280006,"78":-0.01597682014107704,"79":-0.19300810992717743}},"28":{"bias":0.09486129879951477,"weights":{"0":-0.1009712666273117,"1":0.0035708488430827856,"2":-0.12018127739429474,"3":-0.13572242856025696,"4":-0.09077871590852737,"5":0.18402063846588135,"6":-0.17581629753112793,"7":-0.012157425284385681,"8":-0.1423976570367813,"9":-0.16584686934947968,"10":-0.18337957561016083,"11":0.020387127995491028,"12":-0.10778283327817917,"13":0.16309167444705963,"14":-0.07788418233394623,"15":-0.13087061047554016,"16":-0.1639503836631775,"17":-0.10447318106889725,"18":-0.103391133248806,"19":0.12107696384191513,"20":0.1748528778553009,"21":-0.16153869032859802,"22":-0.06594657897949219,"23":0.1580149531364441,"24":0.08658847957849503,"25":0.15326347947120667,"26":-0.04536435008049011,"27":0.1758953481912613,"28":0.04880718141794205,"29":0.052941616624593735,"30":0.1484002321958542,"31":-0.048245321959257126,"32":-0.08785861730575562,"33":-0.11043819785118103,"34":0.055460844188928604,"35":-0.06184251606464386,"36":-0.07859856635332108,"37":0.07887481898069382,"38":0.11236930638551712,"39":-0.04942971467971802,"40":0.16464583575725555,"41":0.022417370229959488,"42":-0.05868564918637276,"43":-0.09028373658657074,"44":0.01203616987913847,"45":0.17396759986877441,"46":0.1632736474275589,"47":0.0166516974568367,"48":0.14300836622714996,"49":0.1426156610250473,"50":0.16438131034374237,"51":-0.19306431710720062,"52":-0.19881021976470947,"53":-0.16198620200157166,"54":0.12263359129428864,"55":-0.0016632789047434926,"56":-0.07251664996147156,"57":0.04862825572490692,"58":0.015422014519572258,"59":0.10147839784622192,"60":-0.12851989269256592,"61":0.06677702814340591,"62":0.17228679358959198,"63":-0.18205799162387848,"64":-0.046485185623168945,"65":0.018496477976441383,"66":0.009435729123651981,"67":-0.08333321660757065,"68":-0.00692535936832428,"69":-0.004040553234517574,"70":-0.09153027087450027,"71":-0.16826100647449493,"72":0.06626569479703903,"73":-0.04560273513197899,"74":-0.04033849760890007,"75":0.16659048199653625,"76":-0.07813342660665512,"77":-0.12194319814443588,"78":0.08917789161205292,"79":0.12357179820537567}},"29":{"bias":-0.19797460734844208,"weights":{"0":0.17133910953998566,"1":0.06614875048398972,"2":-0.14671877026557922,"3":0.19084784388542175,"4":0.19200915098190308,"5":0.18340225517749786,"6":-0.07932178676128387,"7":-0.004921688232570887,"8":-0.015676695853471756,"9":-0.05841407924890518,"10":-0.022605424746870995,"11":0.07106269150972366,"12":0.0014035957865417004,"13":0.12549711763858795,"14":-0.1461820751428604,"15":0.004120252560824156,"16":-0.12123103439807892,"17":0.18782226741313934,"18":-0.20529279112815857,"19":-0.12188410013914108,"20":-0.07775077223777771,"21":-0.017234204337000847,"22":-0.08656706660985947,"23":-0.06029431149363518,"24":-0.017614828422665596,"25":-0.13694791495800018,"26":0.037294868379831314,"27":-0.10689754784107208,"28":0.08329571783542633,"29":0.10445281863212585,"30":-0.07330820709466934,"31":-0.08819740265607834,"32":-0.1981016844511032,"33":0.10962987691164017,"34":0.045568037778139114,"35":0.09089355170726776,"36":0.03882405906915665,"37":0.023244919255375862,"38":-0.19094745814800262,"39":0.08647657185792923,"40":0.012902234680950642,"41":0.1240302100777626,"42":0.09345515072345734,"43":0.027806710451841354,"44":0.14036132395267487,"45":0.0865471139550209,"46":-0.11475566774606705,"47":0.10931023210287094,"48":0.08424079418182373,"49":-0.19794955849647522,"50":0.16648906469345093,"51":-0.06650568544864655,"52":-0.11030206829309464,"53":-0.001410478027537465,"54":-0.0767243504524231,"55":0.019598161801695824,"56":0.1689223349094391,"57":-0.03986339271068573,"58":-0.20125089585781097,"59":0.1946764588356018,"60":0.026742225512862206,"61":0.06632755696773529,"62":0.10745764523744583,"63":-0.1696767807006836,"64":0.12045874446630478,"65":0.05634288117289543,"66":0.17918355762958527,"67":0.006832174491137266,"68":0.18992388248443604,"69":-0.09819145500659943,"70":-0.16140463948249817,"71":0.1850673258304596,"72":0.061044156551361084,"73":0.17508232593536377,"74":0.11923640966415405,"75":0.15692059695720673,"76":-0.06759808957576752,"77":0.14658641815185547,"78":0.11758868396282196,"79":-0.06543941795825958}},"30":{"bias":0.041788388043642044,"weights":{"0":-0.049653518944978714,"1":-0.13968557119369507,"2":-0.08057194203138351,"3":-0.049508847296237946,"4":0.06381618976593018,"5":-0.09665174037218094,"6":0.1779671013355255,"7":-0.02413036860525608,"8":0.06600203365087509,"9":0.12810342013835907,"10":0.1388522982597351,"11":0.0736866220831871,"12":0.149276465177536,"13":-0.052717093378305435,"14":0.1821512132883072,"15":0.009117227047681808,"16":0.1659252941608429,"17":0.14815524220466614,"18":-0.15429262816905975,"19":0.08465699106454849,"20":-0.12034984678030014,"21":0.03300796449184418,"22":0.026845183223485947,"23":0.12014149129390717,"24":-0.16883113980293274,"25":-0.08721423149108887,"26":-0.018004290759563446,"27":0.20752739906311035,"28":-0.11429905891418457,"29":0.1607382893562317,"30":0.09161296486854553,"31":0.05870431289076805,"32":0.11027948558330536,"33":-0.13582845032215118,"34":0.1708507090806961,"35":0.0680682584643364,"36":-0.05895151570439339,"37":0.08493422716856003,"38":0.013220002874732018,"39":-0.056367337703704834,"40":0.1789439618587494,"41":0.0738292783498764,"42":-0.061910480260849,"43":0.018195128068327904,"44":-0.14250735938549042,"45":0.12292959541082382,"46":0.022937294095754623,"47":-0.040625154972076416,"48":0.16163189709186554,"49":-0.1780814677476883,"50":-0.04239828512072563,"51":0.11270774155855179,"52":-0.046682119369506836,"53":-0.05618254095315933,"54":-0.17567946016788483,"55":0.02573734149336815,"56":0.17104117572307587,"57":0.19006198644638062,"58":-0.051081277430057526,"59":-0.10486114770174026,"60":0.0611472986638546,"61":-0.051912445574998856,"62":0.1746109277009964,"63":0.15564647316932678,"64":0.0440068393945694,"65":0.09532404690980911,"66":-0.166481614112854,"67":-0.05121670663356781,"68":0.023143483325839043,"69":0.16973049938678741,"70":0.18351754546165466,"71":-0.020794667303562164,"72":0.05324169620871544,"73":0.13000868260860443,"74":-0.051518235355615616,"75":0.1292378306388855,"76":0.14748859405517578,"77":-0.0028054837603121996,"78":-0.14499643445014954,"79":0.19879069924354553}},"31":{"bias":-0.0633162260055542,"weights":{"0":-0.03210265934467316,"1":0.03151339292526245,"2":-0.004765794146806002,"3":-0.0762847438454628,"4":0.1292515993118286,"5":0.08810395002365112,"6":0.08481311053037643,"7":0.0888158529996872,"8":0.1676291972398758,"9":-0.007342883385717869,"10":-0.015464581549167633,"11":0.0916755348443985,"12":0.1626449078321457,"13":0.20762962102890015,"14":-0.013856778852641582,"15":-0.15790630877017975,"16":-0.06350641697645187,"17":-0.11377323418855667,"18":-0.055724143981933594,"19":0.01464348379522562,"20":-0.1749594807624817,"21":0.15564846992492676,"22":-0.013575720600783825,"23":-0.11081095039844513,"24":-0.004105181898921728,"25":0.17246142029762268,"26":-0.1603192389011383,"27":0.1752881556749344,"28":0.19531752169132233,"29":0.13668176531791687,"30":0.0446171835064888,"31":0.10473348945379257,"32":-0.11642755568027496,"33":0.08547142148017883,"34":0.13459992408752441,"35":0.11969044059515,"36":0.05161486938595772,"37":0.07817337661981583,"38":-0.06427650153636932,"39":-0.0773831158876419,"40":-0.02509934827685356,"41":0.15311916172504425,"42":-0.029652616009116173,"43":-0.143265038728714,"44":-0.14614972472190857,"45":-0.07230690121650696,"46":-0.054974786937236786,"47":0.041521113365888596,"48":0.12401502579450607,"49":-0.07840283215045929,"50":-0.002959952689707279,"51":0.06288131326436996,"52":-0.0766049176454544,"53":-0.13679733872413635,"54":0.157465398311615,"55":0.07689834386110306,"56":0.18798163533210754,"57":0.0543983057141304,"58":-0.09299786388874054,"59":0.057857152074575424,"60":-0.1575368195772171,"61":0.03157956898212433,"62":0.14215229451656342,"63":0.010096183978021145,"64":-0.1408657431602478,"65":0.08835691958665848,"66":0.05684146285057068,"67":0.023345105350017548,"68":0.1781308352947235,"69":0.0875966027379036,"70":-0.021165944635868073,"71":0.09111476689577103,"72":0.1939789205789566,"73":0.18547743558883667,"74":0.12090659886598587,"75":0.06210819259285927,"76":-0.18358440697193146,"77":0.17969849705696106,"78":-0.19208073616027832,"79":0.12155459821224213}},"32":{"bias":0.011300289072096348,"weights":{"0":0.13460712134838104,"1":0.1627783328294754,"2":0.06448092311620712,"3":0.04355396702885628,"4":0.07488542795181274,"5":0.024108950048685074,"6":0.14512835443019867,"7":-0.15163441002368927,"8":0.2035583257675171,"9":0.17443998157978058,"10":0.06900661438703537,"11":-0.017416782677173615,"12":0.056189049035310745,"13":-0.13397006690502167,"14":0.08288390189409256,"15":0.19157126545906067,"16":-0.08859023451805115,"17":-0.055537596344947815,"18":-0.10432518273591995,"19":0.06757081300020218,"20":-0.13126824796199799,"21":-0.1797439604997635,"22":0.1465447098016739,"23":0.07789139449596405,"24":-0.10804276913404465,"25":0.17429183423519135,"26":0.10999719053506851,"27":0.01120043732225895,"28":-0.014293285086750984,"29":-0.19799524545669556,"30":-0.07758112251758575,"31":0.01284930668771267,"32":-0.04923474043607712,"33":0.20162394642829895,"34":0.15650703012943268,"35":0.05538240820169449,"36":0.11075467616319656,"37":-0.15625867247581482,"38":-0.18182621896266937,"39":-0.18386688828468323,"40":-0.15404245257377625,"41":-0.17673878371715546,"42":0.13335318863391876,"43":-0.1324457824230194,"44":0.14089731872081757,"45":0.08915238082408905,"46":-0.008062182925641537,"47":0.14530041813850403,"48":-0.053786881268024445,"49":0.05294293165206909,"50":-0.15657085180282593,"51":-0.07253307849168777,"52":0.09680168330669403,"53":0.04266229271888733,"54":-0.04399668425321579,"55":0.1735392063856125,"56":-0.13240571320056915,"57":0.07262130081653595,"58":-0.19453255832195282,"59":0.09173282235860825,"60":0.15435272455215454,"61":0.05150802433490753,"62":0.06399627774953842,"63":0.15103232860565186,"64":0.18593542277812958,"65":0.10749083757400513,"66":0.12297370284795761,"67":0.18417902290821075,"68":-0.17839770019054413,"69":0.10571841150522232,"70":-0.017138369381427765,"71":0.08743498474359512,"72":0.09442713856697083,"73":-0.11881833523511887,"74":0.0868990495800972,"75":-0.08934009820222855,"76":0.01968783512711525,"77":0.19798070192337036,"78":-0.03664311394095421,"79":-0.10056272894144058}},"33":{"bias":0.2061799019575119,"weights":{"0":0.17006361484527588,"1":0.1262173056602478,"2":0.04658575728535652,"3":-0.015318228863179684,"4":-0.1356753706932068,"5":0.005230243317782879,"6":0.1479303538799286,"7":-0.16222254931926727,"8":-0.04914648458361626,"9":0.08214985579252243,"10":0.1624968945980072,"11":0.20089761912822723,"12":0.08600331842899323,"13":0.011688962578773499,"14":0.14805814623832703,"15":-0.1511099487543106,"16":-0.11454666405916214,"17":-0.03906532749533653,"18":-0.13843245804309845,"19":0.008182426914572716,"20":-0.04778739809989929,"21":-0.0709923729300499,"22":-0.1645057499408722,"23":-0.02941902168095112,"24":0.15140213072299957,"25":0.14448295533657074,"26":0.1406378597021103,"27":-0.09853524714708328,"28":0.014841043390333652,"29":-0.11969532817602158,"30":-0.14148138463497162,"31":-0.13713210821151733,"32":-0.045468319207429886,"33":0.12023031711578369,"34":0.03515037149190903,"35":-0.11589867621660233,"36":0.08978195488452911,"37":-0.14906397461891174,"38":-0.13537277281284332,"39":0.1479405015707016,"40":0.0988226905465126,"41":0.13603968918323517,"42":-0.09545280039310455,"43":0.06197907030582428,"44":0.1169288381934166,"45":-0.15779076516628265,"46":-0.16096344590187073,"47":-0.029661593958735466,"48":0.019786333665251732,"49":-0.17056287825107574,"50":-0.1272979974746704,"51":0.16772982478141785,"52":-0.06189408153295517,"53":0.11865516752004623,"54":0.02954309619963169,"55":-0.022068148478865623,"56":-0.065140001475811,"57":0.03475436940789223,"58":0.10375071316957474,"59":-0.20132854580879211,"60":-0.13657952845096588,"61":0.04082026705145836,"62":0.15215140581130981,"63":-0.08482950925827026,"64":0.17653170228004456,"65":-0.03094492107629776,"66":-0.024900007992982864,"67":0.07077255845069885,"68":0.07024627923965454,"69":0.19102905690670013,"70":-0.04335217550396919,"71":-0.08659370243549347,"72":-0.1782541573047638,"73":-0.16218164563179016,"74":0.17458733916282654,"75":0.07403181493282318,"76":0.10538236796855927,"77":-0.15976455807685852,"78":0.018580110743641853,"79":0.15803851187229156}},"34":{"bias":-0.1691637486219406,"weights":{"0":0.0785927027463913,"1":0.1480848640203476,"2":-0.09963885694742203,"3":0.19663570821285248,"4":-0.007018905133008957,"5":0.17850689589977264,"6":-0.045270003378391266,"7":0.016810430213809013,"8":0.2007470428943634,"9":-0.15998512506484985,"10":-0.00005024924757890403,"11":-0.02755199372768402,"12":0.1685495227575302,"13":0.09198927879333496,"14":-0.043752532452344894,"15":0.15527945756912231,"16":-0.16514083743095398,"17":-0.0573178231716156,"18":-0.08773834258317947,"19":0.07583873718976974,"20":0.017014387995004654,"21":-0.16467039287090302,"22":0.09814980626106262,"23":-0.18104048073291779,"24":0.16155804693698883,"25":-0.003092935774475336,"26":0.0040892804972827435,"27":0.020421970635652542,"28":0.11845549941062927,"29":-0.18488802015781403,"30":0.14376093447208405,"31":-0.059879835695028305,"32":-0.15661746263504028,"33":0.093752920627594,"34":-0.0908203274011612,"35":-0.10385741293430328,"36":-0.08120109140872955,"37":-0.06573780626058578,"38":-0.08856672793626785,"39":-0.10921553522348404,"40":0.05874382704496384,"41":-0.11212778091430664,"42":0.1201367974281311,"43":0.006665886379778385,"44":0.15424303710460663,"45":-0.08342134207487106,"46":0.02455906569957733,"47":-0.02906222455203533,"48":-0.022529374808073044,"49":0.04016740992665291,"50":-0.10283475369215012,"51":0.12546059489250183,"52":0.06883542984724045,"53":0.1468721181154251,"54":-0.028187518939375877,"55":0.005948525387793779,"56":0.10282250493764877,"57":-0.20265543460845947,"58":-0.15473558008670807,"59":-0.03932188078761101,"60":0.046016570180654526,"61":-0.14112921059131622,"62":0.013369194231927395,"63":0.18742147088050842,"64":-0.17218230664730072,"65":-0.025019900873303413,"66":-0.006841224618256092,"67":-0.006750793661922216,"68":0.05754396691918373,"69":-0.12653256952762604,"70":-0.1519179791212082,"71":-0.11826667934656143,"72":0.0824730172753334,"73":0.07682911306619644,"74":0.11602745950222015,"75":0.013276346027851105,"76":0.020510971546173096,"77":0.13701099157333374,"78":0.16399580240249634,"79":-0.0259507205337286}},"35":{"bias":0.023413991555571556,"weights":{"0":-0.004094074945896864,"1":0.18439078330993652,"2":0.16366851329803467,"3":-0.011025212705135345,"4":0.09396227449178696,"5":-0.08786528557538986,"6":-0.0141523452475667,"7":0.15136761963367462,"8":-0.194273442029953,"9":-0.12104595452547073,"10":-0.1260109394788742,"11":0.14779099822044373,"12":0.15241862833499908,"13":-0.08518131822347641,"14":0.17664147913455963,"15":0.008272528648376465,"16":0.04317232221364975,"17":-0.05148979276418686,"18":0.1636289805173874,"19":-0.02469508722424507,"20":0.055636927485466,"21":0.15915614366531372,"22":0.004079811740666628,"23":-0.01727629080414772,"24":-0.12934014201164246,"25":-0.0629490464925766,"26":-0.11215291172266006,"27":0.052602365612983704,"28":0.002573553705587983,"29":-0.004761700984090567,"30":-0.1225210502743721,"31":0.06146549805998802,"32":-0.1590137928724289,"33":-0.03807482123374939,"34":-0.009260439313948154,"35":0.07247328758239746,"36":-0.042218126356601715,"37":0.0468292310833931,"38":0.1840597689151764,"39":-0.1129511147737503,"40":-0.11918114870786667,"41":-0.09332921355962753,"42":-0.04564344882965088,"43":-0.11078263074159622,"44":0.043426088988780975,"45":0.050257857888936996,"46":0.18934790790081024,"47":0.10626453161239624,"48":0.12963871657848358,"49":-0.07731721550226212,"50":-0.09920676797628403,"51":0.014926498755812645,"52":0.12147551029920578,"53":-0.16892562806606293,"54":-0.19084179401397705,"55":-0.08338727802038193,"56":-0.08775277435779572,"57":-0.17712479829788208,"58":-0.12036655843257904,"59":0.16483405232429504,"60":-0.0885496437549591,"61":-0.15094834566116333,"62":-0.047346826642751694,"63":0.08832452446222305,"64":-0.18513502180576324,"65":-0.18941253423690796,"66":-0.09943413734436035,"67":0.025064954534173012,"68":-0.12301919609308243,"69":0.14741250872612,"70":-0.026896372437477112,"71":-0.14996598660945892,"72":-0.16416096687316895,"73":-0.04832921922206879,"74":0.031709082424640656,"75":0.18788555264472961,"76":0.17166845500469208,"77":-0.030661018565297127,"78":0.036254070699214935,"79":0.06307411193847656}},"36":{"bias":0.061500079929828644,"weights":{"0":0.10032527893781662,"1":0.11314477026462555,"2":0.09177066385746002,"3":0.008586746640503407,"4":-0.14594143629074097,"5":0.17884287238121033,"6":-0.06805220991373062,"7":-0.09266967326402664,"8":-0.1188550814986229,"9":-0.015793582424521446,"10":0.18053783476352692,"11":-0.12275096774101257,"12":0.01601928099989891,"13":0.04618651419878006,"14":0.1540898084640503,"15":-0.025467822328209877,"16":-0.07349756360054016,"17":0.06777079403400421,"18":0.05230356380343437,"19":-0.1250651478767395,"20":-0.0486881323158741,"21":-0.11725438386201859,"22":-0.1324261873960495,"23":-0.06355390697717667,"24":-0.011656210757791996,"25":-0.16419894993305206,"26":0.07937794923782349,"27":0.006349529139697552,"28":0.1851912885904312,"29":-0.12283240258693695,"30":-0.12313301861286163,"31":0.07086385041475296,"32":-0.0848839282989502,"33":-0.06426499038934708,"34":-0.0538184680044651,"35":-0.06042373925447464,"36":0.06435756385326385,"37":0.1194334477186203,"38":-0.16178284585475922,"39":-0.09827811270952225,"40":0.08543547987937927,"41":-0.032252904027700424,"42":0.005912235006690025,"43":0.033712830394506454,"44":0.06443075835704803,"45":-0.13842064142227173,"46":-0.089931920170784,"47":-0.075165294110775,"48":0.08274339139461517,"49":0.05691872909665108,"50":0.1417137235403061,"51":-0.19172079861164093,"52":0.12643975019454956,"53":-0.1894194632768631,"54":0.05182008445262909,"55":0.16201037168502808,"56":-0.05134183540940285,"57":0.0666421428322792,"58":0.04624272510409355,"59":0.08882219344377518,"60":0.19023913145065308,"61":-0.053484831005334854,"62":-0.05345100536942482,"63":-0.08660818636417389,"64":0.02079310454428196,"65":0.1739674210548401,"66":-0.03972535952925682,"67":0.06551995873451233,"68":-0.14771385490894318,"69":0.0002511342754587531,"70":-0.19208599627017975,"71":0.19477230310440063,"72":0.09887981414794922,"73":-0.029781559482216835,"74":-0.029918134212493896,"75":0.16146564483642578,"76":0.108970046043396,"77":0.030564619228243828,"78":0.0549711212515831,"79":0.07818206399679184}},"37":{"bias":-0.0586419515311718,"weights":{"0":0.11217603087425232,"1":-0.04798700660467148,"2":0.03409614786505699,"3":0.17442573606967926,"4":-0.17346681654453278,"5":-0.028256384655833244,"6":0.20479647815227509,"7":-0.1018686518073082,"8":-0.09727516770362854,"9":-0.15170782804489136,"10":0.07187855988740921,"11":-0.032628029584884644,"12":-0.025705574080348015,"13":0.19646936655044556,"14":0.04993890970945358,"15":-0.05811808258295059,"16":0.05260111391544342,"17":-0.022951608523726463,"18":0.10023118555545807,"19":-0.08570461720228195,"20":0.14209868013858795,"21":0.21534599363803864,"22":-0.10880168527364731,"23":0.19715812802314758,"24":-0.1609075516462326,"25":-0.05215480923652649,"26":0.041435521095991135,"27":-0.09727243334054947,"28":0.1346389800310135,"29":-0.15871518850326538,"30":0.1311381459236145,"31":0.027884794399142265,"32":-0.02140512876212597,"33":-0.009456218220293522,"34":-0.11848368495702744,"35":0.12905831634998322,"36":-0.15602584183216095,"37":0.028715381398797035,"38":-0.15021172165870667,"39":-0.18856799602508545,"40":-0.025310853496193886,"41":0.19012363255023956,"42":-0.12670587003231049,"43":0.0630645602941513,"44":0.035682473331689835,"45":0.18612845242023468,"46":0.04375026375055313,"47":-0.14545570313930511,"48":0.07964639365673065,"49":0.003906556870788336,"50":0.08146315068006516,"51":0.1451851725578308,"52":0.06676334142684937,"53":-0.05091000348329544,"54":0.08149347454309464,"55":0.1116567924618721,"56":0.1272698938846588,"57":-0.12218636274337769,"58":0.03399650380015373,"59":0.013588082045316696,"60":0.1851167529821396,"61":-0.1185918003320694,"62":-0.10924047976732254,"63":0.054987434297800064,"64":0.09906428307294846,"65":0.14872130751609802,"66":0.15681162476539612,"67":-0.06314080208539963,"68":-0.05712605267763138,"69":-0.06786713749170303,"70":-0.1587347686290741,"71":-0.11928239464759827,"72":0.011286061257123947,"73":0.18510571122169495,"74":-0.11251173168420792,"75":-0.19877803325653076,"76":-0.03883541002869606,"77":-0.15992774069309235,"78":0.12052541226148605,"79":-0.05212078616023064}},"38":{"bias":-0.1581438034772873,"weights":{"0":-0.1624579280614853,"1":0.032260097563266754,"2":0.10399270057678223,"3":0.12621916830539703,"4":0.023006165400147438,"5":-0.10619598627090454,"6":0.15487432479858398,"7":-0.04197493568062782,"8":-0.05497373640537262,"9":0.19079522788524628,"10":0.04202960059046745,"11":0.07510001212358475,"12":0.07406195253133774,"13":-0.1727314293384552,"14":0.1567883938550949,"15":-0.1312679797410965,"16":0.03240817412734032,"17":0.18610994517803192,"18":0.08663713186979294,"19":-0.18205741047859192,"20":0.09348634630441666,"21":0.12465927004814148,"22":0.03707576543092728,"23":0.20668788254261017,"24":0.07735889405012131,"25":-0.003366325981914997,"26":-0.1532098799943924,"27":-0.11600055545568466,"28":-0.0446811206638813,"29":0.08093572407960892,"30":0.15631037950515747,"31":-0.14065562188625336,"32":-0.10937832295894623,"33":-0.04539955407381058,"34":0.12185186892747879,"35":0.15113796293735504,"36":-0.12031092494726181,"37":0.19468247890472412,"38":0.03837605565786362,"39":0.14924262464046478,"40":0.1863759607076645,"41":-0.13103483617305756,"42":0.10936284065246582,"43":0.03588172420859337,"44":-0.038600724190473557,"45":0.05574900284409523,"46":-0.15068086981773376,"47":0.14384044706821442,"48":0.18612366914749146,"49":-0.18965457379817963,"50":0.09666641056537628,"51":0.05195854604244232,"52":0.09647546708583832,"53":-0.05710671842098236,"54":0.0036011391784995794,"55":-0.16496796905994415,"56":-0.15742963552474976,"57":0.012530820444226265,"58":-0.1857561320066452,"59":0.015488856472074986,"60":0.112341970205307,"61":-0.013608737848699093,"62":0.1605147421360016,"63":0.12244033813476562,"64":-0.05889967083930969,"65":0.14485111832618713,"66":-0.172803595662117,"67":0.18219853937625885,"68":-0.06776653975248337,"69":-0.06618963927030563,"70":-0.15672892332077026,"71":0.11240961402654648,"72":0.18967092037200928,"73":-0.03911464288830757,"74":0.0949929878115654,"75":0.018286947160959244,"76":-0.16509035229682922,"77":0.0731857493519783,"78":-0.09099005907773972,"79":0.14594417810440063}},"39":{"bias":-0.04998205974698067,"weights":{"0":0.057924941182136536,"1":-0.1341027170419693,"2":-0.03090752847492695,"3":0.1908218264579773,"4":0.14094434678554535,"5":0.0010657941456884146,"6":0.202894926071167,"7":-0.06276758760213852,"8":-0.1695261001586914,"9":0.0883316695690155,"10":-0.10099493712186813,"11":0.15957219898700714,"12":-0.17392341792583466,"13":-0.08287025988101959,"14":0.04339810460805893,"15":-0.026460038498044014,"16":-0.07620743662118912,"17":-0.015161759220063686,"18":0.11258294433355331,"19":0.14219804108142853,"20":0.09181280434131622,"21":-0.19021223485469818,"22":-0.16705355048179626,"23":-0.13420681655406952,"24":0.12068067491054535,"25":-0.1673295944929123,"26":0.09560742229223251,"27":-0.09682180732488632,"28":0.03911523148417473,"29":0.14172279834747314,"30":-0.12732191383838654,"31":0.07158402353525162,"32":-0.09528316557407379,"33":-0.08093433082103729,"34":0.02954646572470665,"35":0.03985437750816345,"36":-0.11620330810546875,"37":0.14258863031864166,"38":0.1280084252357483,"39":-0.18669559061527252,"40":0.03525414690375328,"41":0.1456814557313919,"42":-0.031100107356905937,"43":-0.14398963749408722,"44":0.191340833902359,"45":-0.12156164646148682,"46":-0.056443940848112106,"47":-0.04366014152765274,"48":0.03875082731246948,"49":-0.004550489131361246,"50":-0.17563652992248535,"51":0.03811214864253998,"52":-0.05108256638050079,"53":0.09417500346899033,"54":0.09541274607181549,"55":-0.15073378384113312,"56":-0.16741777956485748,"57":-0.08294378966093063,"58":0.19099020957946777,"59":-0.1374237835407257,"60":-0.12187322229146957,"61":-0.10601186752319336,"62":0.17062655091285706,"63":-0.1689470410346985,"64":0.15972541272640228,"65":-0.07587611675262451,"66":0.083170086145401,"67":0.059115491807460785,"68":0.048102736473083496,"69":-0.1359073519706726,"70":-0.1668791025876999,"71":0.10004318505525589,"72":0.005322279408574104,"73":-0.09955419600009918,"74":0.18238136172294617,"75":0.13549888134002686,"76":0.015026791021227837,"77":0.06350141763687134,"78":0.12090203166007996,"79":-0.1364220678806305}}},{"score":{"bias":-0.35377398133277893,"weights":{"0":-0.12078304588794708,"1":-0.12223867326974869,"2":-0.2619839012622833,"3":-0.3341716229915619,"4":-0.3420926332473755,"5":-0.17065009474754333,"6":-0.39362624287605286,"7":-0.38803228735923767,"8":-0.02863207459449768,"9":-0.2551809549331665,"10":-0.46169865131378174,"11":-0.00518831517547369,"12":-0.2879948616027832,"13":-0.16415371000766754,"14":-0.23837384581565857,"15":-0.24730628728866577,"16":-0.01848074607551098,"17":-0.35028204321861267,"18":-0.06416642665863037,"19":-0.2692604959011078,"20":-0.16945427656173706,"21":-0.10371966660022736,"22":-0.11695314198732376,"23":-0.3611484467983246,"24":-0.17062343657016754,"25":-0.06733638793230057,"26":-0.06945367157459259,"27":-0.30367735028266907,"28":-0.20908892154693604,"29":-0.02692585624754429,"30":-0.42971527576446533,"31":-0.22736631333827972,"32":-0.244202122092247,"33":-0.359740287065506,"34":-0.34183433651924133,"35":-0.19580520689487457,"36":-0.27905747294425964,"37":-0.346248984336853,"38":-0.330361932516098,"39":-0.18722335994243622}}}],"outputLookup":true,"inputLookup":false,"activation":"sigmoid","trainOpts":{"iterations":10,"errorThresh":0.00014,"log":true,"logPeriod":1,"learningRate":0.3,"momentum":0.1,"callbackPeriod":10,"beta1":0.9,"beta2":0.999,"epsilon":1e-8}}