var staticNet = {"sizes":[80,40,1],"layers":[{"0":{},"1":{},"2":{},"3":{},"4":{},"5":{},"6":{},"7":{},"8":{},"9":{},"10":{},"11":{},"12":{},"13":{},"14":{},"15":{},"16":{},"17":{},"18":{},"19":{},"20":{},"21":{},"22":{},"23":{},"24":{},"25":{},"26":{},"27":{},"28":{},"29":{},"30":{},"31":{},"32":{},"33":{},"34":{},"35":{},"36":{},"37":{},"38":{},"39":{},"40":{},"41":{},"42":{},"43":{},"44":{},"45":{},"46":{},"47":{},"48":{},"49":{},"50":{},"51":{},"52":{},"53":{},"54":{},"55":{},"56":{},"57":{},"58":{},"59":{},"60":{},"61":{},"62":{},"63":{},"64":{},"65":{},"66":{},"67":{},"68":{},"69":{},"70":{},"71":{},"72":{},"73":{},"74":{},"75":{},"76":{},"77":{},"78":{},"79":{}},{"0":{"bias":0.18186742067337036,"weights":{"0":0.21735554933547974,"1":-0.07166343927383423,"2":0.09648393094539642,"3":-0.04398203268647194,"4":-0.03449847549200058,"5":0.10402462631464005,"6":0.0309092216193676,"7":-0.09489300101995468,"8":0.16901850700378418,"9":0.1753489375114441,"10":-0.14332039654254913,"11":-0.027611741796135902,"12":-0.0159875750541687,"13":0.08545773476362228,"14":-0.006814765278249979,"15":0.1908409297466278,"16":-0.17889465391635895,"17":-0.0696088895201683,"18":0.18102344870567322,"19":-0.14743390679359436,"20":0.15028071403503418,"21":-0.04423379525542259,"22":-0.14966167509555817,"23":0.09167120605707169,"24":-0.1004561111330986,"25":0.0009573225397616625,"26":0.16144563257694244,"27":0.20623299479484558,"28":0.09995129704475403,"29":0.15872575342655182,"30":-0.1643594354391098,"31":-0.012862221337854862,"32":0.19737878441810608,"33":0.19312499463558197,"34":-0.14265283942222595,"35":0.19257664680480957,"36":0.08781997859477997,"37":-0.14352980256080627,"38":0.13864046335220337,"39":0.05429650470614433,"40":0.10628776252269745,"41":0.14232143759727478,"42":-0.04546697065234184,"43":-0.12376575171947479,"44":0.16106687486171722,"45":0.008469225838780403,"46":0.0048763928934931755,"47":-0.0551595501601696,"48":0.15639342367649078,"49":-0.07904648780822754,"50":-0.07544004172086716,"51":0.10637768357992172,"52":0.06575430929660797,"53":-0.13817483186721802,"54":0.13534246385097504,"55":-0.09860949963331223,"56":-0.10159093141555786,"57":-0.09741389751434326,"58":0.19135044515132904,"59":-0.09443183243274689,"60":0.055915236473083496,"61":0.13437342643737793,"62":-0.18506796658039093,"63":-0.12852823734283447,"64":0.0973789319396019,"65":-0.10447117686271667,"66":0.13323599100112915,"67":-0.1860010176897049,"68":-0.19447433948516846,"69":-0.08086048066616058,"70":-0.13540352880954742,"71":-0.08012641221284866,"72":-0.15580831468105316,"73":0.1816662698984146,"74":-0.16235744953155518,"75":-0.09432876855134964,"76":0.15715177357196808,"77":-0.0037386745680123568,"78":0.1020512506365776,"79":-0.10255488753318787}},"1":{"bias":0.07945437729358673,"weights":{"0":-0.058798037469387054,"1":-0.17934434115886688,"2":-0.026754777878522873,"3":0.1631188690662384,"4":-0.12407154589891434,"5":-0.11355798691511154,"6":0.11162330955266953,"7":0.03969096764922142,"8":-0.06992869824171066,"9":-0.1510820835828781,"10":-0.05747728794813156,"11":0.13167381286621094,"12":-0.13273712992668152,"13":0.1347884237766266,"14":-0.17982541024684906,"15":-0.07178174704313278,"16":0.17678017914295197,"17":-0.04018857702612877,"18":0.07394888997077942,"19":0.07679415494203568,"20":0.0719209611415863,"21":0.020914047956466675,"22":-0.1877782940864563,"23":-0.14136478304862976,"24":0.09242606908082962,"25":-0.09101912379264832,"26":-0.12254054099321365,"27":0.05654390528798103,"28":-0.007121363189071417,"29":-0.01125873439013958,"30":-0.0032856438774615526,"31":-0.021343814209103584,"32":-0.10616465657949448,"33":0.06497430056333542,"34":-0.07003841549158096,"35":0.05849742516875267,"36":-0.10284776240587234,"37":0.048124369233846664,"38":0.015724264085292816,"39":-0.0035143312998116016,"40":0.15515609085559845,"41":0.013108926825225353,"42":0.11727447807788849,"43":-0.1635180562734604,"44":-0.09461529552936554,"45":-0.023662587627768517,"46":-0.027881866320967674,"47":-0.08006975054740906,"48":-0.03202638402581215,"49":-0.12609179317951202,"50":0.1390114277601242,"51":-0.0434078723192215,"52":0.028671354055404663,"53":0.009916000068187714,"54":-0.159455344080925,"55":0.06942405551671982,"56":-0.14500968158245087,"57":0.1769307404756546,"58":-0.028255287557840347,"59":0.11603780835866928,"60":-0.19243654608726501,"61":-0.011095964349806309,"62":0.017393289133906364,"63":-0.16416239738464355,"64":-0.17393136024475098,"65":0.09361600875854492,"66":0.08755848556756973,"67":-0.19362638890743256,"68":0.009837388060986996,"69":-0.018211252987384796,"70":0.10143590718507767,"71":-0.17729076743125916,"72":0.04185907542705536,"73":0.06578205525875092,"74":-0.15314824879169464,"75":-0.14822421967983246,"76":0.03855372220277786,"77":0.005557980388402939,"78":-0.08673328161239624,"79":-0.11309298127889633}},"2":{"bias":-0.012619951739907265,"weights":{"0":0.08070694655179977,"1":0.0765635296702385,"2":0.006932215765118599,"3":-0.023390229791402817,"4":-0.05364702641963959,"5":0.096303790807724,"6":-0.149725079536438,"7":0.04892483726143837,"8":0.11913765221834183,"9":0.07909784466028214,"10":0.0409119576215744,"11":-0.16636517643928528,"12":0.06306318193674088,"13":0.06918317079544067,"14":0.058434586971998215,"15":0.04751284793019295,"16":-0.05663851276040077,"17":-0.16331368684768677,"18":0.19333645701408386,"19":0.14119258522987366,"20":0.016253646463155746,"21":0.08769445866346359,"22":-0.1186641976237297,"23":-0.18326790630817413,"24":-0.004638574551790953,"25":0.08340348303318024,"26":-0.1504839062690735,"27":-0.0751887708902359,"28":0.09080597013235092,"29":-0.16275258362293243,"30":0.08486031740903854,"31":0.06214211508631706,"32":0.20201295614242554,"33":0.004627498798072338,"34":-0.18133828043937683,"35":-0.1265725940465927,"36":-0.13808855414390564,"37":-0.03815187141299248,"38":0.15698516368865967,"39":0.19000375270843506,"40":-0.04625459387898445,"41":0.15380163490772247,"42":-0.12258215248584747,"43":0.06477707624435425,"44":0.14082090556621552,"45":-0.12585283815860748,"46":0.052182238548994064,"47":-0.10761702060699463,"48":0.16419507563114166,"49":-0.06961950659751892,"50":-0.17926599085330963,"51":-0.07601404935121536,"52":0.056993965059518814,"53":0.0010169901652261615,"54":0.004084734246134758,"55":-0.16000552475452423,"56":0.15248389542102814,"57":-0.10950905084609985,"58":0.19197611510753632,"59":0.11979959905147552,"60":-0.14036305248737335,"61":0.10025369375944138,"62":0.06913342326879501,"63":0.17190685868263245,"64":-0.13526016473770142,"65":-0.14343781769275665,"66":-0.012866009026765823,"67":-0.021146303042769432,"68":-0.15883547067642212,"69":-0.007429766468703747,"70":0.17552608251571655,"71":-0.03341634199023247,"72":-0.14714938402175903,"73":-0.1882651299238205,"74":-0.13334695994853973,"75":-0.08150966465473175,"76":-0.07192651927471161,"77":0.01752261444926262,"78":-0.11807947605848312,"79":0.18368561565876007}},"3":{"bias":-0.06520070135593414,"weights":{"0":0.10667489469051361,"1":-0.19236472249031067,"2":-0.18746106326580048,"3":0.11146879941225052,"4":0.14377744495868683,"5":0.17290689051151276,"6":-0.17947791516780853,"7":0.10901042073965073,"8":0.18591496348381042,"9":-0.17716145515441895,"10":-0.020864330232143402,"11":0.16557779908180237,"12":-0.18605481088161469,"13":-0.10208455473184586,"14":-0.1931232511997223,"15":-0.18227165937423706,"16":-0.10974299907684326,"17":-0.08283339440822601,"18":0.08445759117603302,"19":0.05765502154827118,"20":-0.09297904372215271,"21":0.09579749405384064,"22":-0.14580035209655762,"23":0.08386638760566711,"24":-0.18528658151626587,"25":0.06987686455249786,"26":-0.053331125527620316,"27":0.12080539762973785,"28":0.1508249193429947,"29":-0.058068953454494476,"30":0.10926741361618042,"31":-0.04818934202194214,"32":-0.12792594730854034,"33":0.13933920860290527,"34":0.17042940855026245,"35":0.13912568986415863,"36":-0.013934890739619732,"37":0.0011246391804888844,"38":0.022093597799539566,"39":-0.19598960876464844,"40":-0.20264695584774017,"41":-0.0395529679954052,"42":0.034401603043079376,"43":0.14505159854888916,"44":-0.06067729741334915,"45":-0.05974142253398895,"46":-0.08091999590396881,"47":0.02105480432510376,"48":0.13555222749710083,"49":0.12099586427211761,"50":0.11509723961353302,"51":0.18975578248500824,"52":0.09769867360591888,"53":0.06284678727388382,"54":-0.028262726962566376,"55":-0.17463064193725586,"56":0.17242079973220825,"57":0.14962899684906006,"58":-0.1367810219526291,"59":-0.0208204984664917,"60":-0.08740436285734177,"61":-0.06614517420530319,"62":0.08455412089824677,"63":-0.006764755118638277,"64":-0.09605203568935394,"65":-0.0353710800409317,"66":0.1474233865737915,"67":-0.04263673350214958,"68":-0.1919589340686798,"69":-0.14573229849338531,"70":-0.1086004301905632,"71":0.12565837800502777,"72":0.09087961167097092,"73":-0.009709374979138374,"74":0.1790325790643692,"75":0.012697103433310986,"76":-0.1213112622499466,"77":0.19585201144218445,"78":-0.1541903167963028,"79":0.08737795054912567}},"4":{"bias":-0.04340881481766701,"weights":{"0":-0.18248379230499268,"1":0.19504719972610474,"2":-0.16104362905025482,"3":-0.1939156949520111,"4":0.024505246430635452,"5":-0.1360168308019638,"6":0.16658112406730652,"7":-0.15609249472618103,"8":-0.12518498301506042,"9":0.14355610311031342,"10":0.0076387436129152775,"11":0.1308118849992752,"12":0.16652385890483856,"13":-0.18138132989406586,"14":0.08237050473690033,"15":-0.12575702369213104,"16":-0.03391695022583008,"17":-0.13064037263393402,"18":0.12534280121326447,"19":0.04023299738764763,"20":-0.1741672307252884,"21":0.012996730394661427,"22":-0.1471024602651596,"23":-0.10391029715538025,"24":-0.17978604137897491,"25":0.03369969129562378,"26":-0.07705066353082657,"27":-0.06163836270570755,"28":-0.19118519127368927,"29":0.146536186337471,"30":-0.13514994084835052,"31":0.07622040808200836,"32":0.12255769968032837,"33":-0.14772208034992218,"34":0.15908291935920715,"35":0.004440711811184883,"36":-0.08861599117517471,"37":-0.0951928198337555,"38":0.07325319200754166,"39":-0.1073150634765625,"40":0.15156738460063934,"41":-0.185855895280838,"42":0.009910685941576958,"43":0.1495809555053711,"44":0.1511828601360321,"45":-0.11055661737918854,"46":-0.13247992098331451,"47":-0.182960644364357,"48":-0.08179685473442078,"49":-0.14300020039081573,"50":0.14774617552757263,"51":0.0852777361869812,"52":-0.02286011353135109,"53":0.1593063473701477,"54":-0.008001805283129215,"55":-0.09620718657970428,"56":0.054379209876060486,"57":0.13349735736846924,"58":-0.1015591025352478,"59":-0.17797809839248657,"60":0.12463922053575516,"61":0.18239104747772217,"62":0.08718223869800568,"63":0.19289305806159973,"64":-0.08210808783769608,"65":0.13006187975406647,"66":-0.07924749702215195,"67":-0.09141463786363602,"68":-0.18760304152965546,"69":-0.08410166949033737,"70":-0.1986112743616104,"71":0.022459516301751137,"72":0.02307193912565708,"73":-0.16035614907741547,"74":-0.09199997782707214,"75":-0.16955620050430298,"76":0.05780740827322006,"77":0.04333126172423363,"78":0.1631566882133484,"79":0.030568737536668777}},"5":{"bias":0.21565479040145874,"weights":{"0":0.18599043786525726,"1":0.01578267477452755,"2":0.042110953480005264,"3":-0.036513347178697586,"4":-0.12291348725557327,"5":-0.0016733288066461682,"6":0.1367775946855545,"7":0.03212999925017357,"8":-0.02070503495633602,"9":0.1896296888589859,"10":0.022026602178812027,"11":-0.06281798332929611,"12":0.06549300253391266,"13":0.07673308998346329,"14":0.12800298631191254,"15":-0.06013532355427742,"16":0.15791699290275574,"17":0.12576550245285034,"18":-0.011420254595577717,"19":0.11627509444952011,"20":-0.06298094242811203,"21":-0.09201540052890778,"22":0.0851975753903389,"23":0.051641497761011124,"24":-0.14520494639873505,"25":0.021729549393057823,"26":0.19276925921440125,"27":0.1521839201450348,"28":0.19238311052322388,"29":0.04993600770831108,"30":0.13247501850128174,"31":-0.10575083643198013,"32":-0.14949528872966766,"33":-0.06451837718486786,"34":0.1935630440711975,"35":-0.1242571696639061,"36":0.0034015867859125137,"37":-0.16499458253383636,"38":-0.012957751750946045,"39":0.08809007704257965,"40":0.17383791506290436,"41":0.17802351713180542,"42":-0.11676426231861115,"43":-0.08542386442422867,"44":0.0616738423705101,"45":-0.054725248366594315,"46":-0.03202701359987259,"47":0.1114567294716835,"48":-0.09729398787021637,"49":0.10305652767419815,"50":0.09455680847167969,"51":0.1334194839000702,"52":-0.127664253115654,"53":0.016581369563937187,"54":-0.013717545196413994,"55":0.1115705743432045,"56":-0.07240116596221924,"57":0.0800095945596695,"58":-0.08219830691814423,"59":0.10692109167575836,"60":0.06050325930118561,"61":-0.17541280388832092,"62":0.17648433148860931,"63":0.07650028169155121,"64":0.16846002638339996,"65":0.1319119781255722,"66":0.032552387565374374,"67":-0.0822765901684761,"68":0.06019480526447296,"69":0.1553405076265335,"70":0.07842790335416794,"71":0.05126757547259331,"72":-0.11463715881109238,"73":0.07304825633764267,"74":0.09332644939422607,"75":0.07250434160232544,"76":-0.03122771717607975,"77":-0.15884186327457428,"78":-0.014118039049208164,"79":0.04394525662064552}},"6":{"bias":-0.09728015959262848,"weights":{"0":0.0318024605512619,"1":0.1552623063325882,"2":-0.15841960906982422,"3":0.061752304434776306,"4":0.060513220727443695,"5":-0.023629222065210342,"6":0.12124369293451309,"7":0.05395076423883438,"8":0.042860060930252075,"9":-0.09213954210281372,"10":-0.00853664893656969,"11":0.015026332810521126,"12":-0.11953556537628174,"13":-0.05125539377331734,"14":0.042418740689754486,"15":0.14455868303775787,"16":-0.09182199090719223,"17":0.20347855985164642,"18":0.052800197154283524,"19":0.13250136375427246,"20":0.1137026771903038,"21":-0.025229310616850853,"22":-0.10036447644233704,"23":-0.18411271274089813,"24":-0.13887271285057068,"25":0.04912754148244858,"26":0.028011582791805267,"27":-0.0921754539012909,"28":-0.09933237731456757,"29":0.0076895905658602715,"30":0.1428402066230774,"31":-0.10205355286598206,"32":-0.11955678462982178,"33":0.1262059509754181,"34":0.19141104817390442,"35":-0.14414438605308533,"36":-0.05089807137846947,"37":0.0007115365006029606,"38":-0.19747307896614075,"39":0.026736853644251823,"40":-0.12493787705898285,"41":0.03348275646567345,"42":-0.18413715064525604,"43":0.183566614985466,"44":-0.08198188245296478,"45":0.02892928570508957,"46":0.08008156716823578,"47":-0.19079960882663727,"48":-0.098773293197155,"49":0.04925025627017021,"50":-0.16425977647304535,"51":-0.0470113530755043,"52":0.16436848044395447,"53":0.047825589776039124,"54":-0.16812974214553833,"55":0.004771189298480749,"56":-0.12695997953414917,"57":-0.08643876761198044,"58":-0.08981559425592422,"59":0.08426425606012344,"60":0.16715757548809052,"61":0.10192880779504776,"62":0.08691705763339996,"63":0.11706434190273285,"64":0.018144946545362473,"65":0.07900746166706085,"66":-0.19788141548633575,"67":-0.09056297689676285,"68":0.1783398985862732,"69":-0.05406023561954498,"70":0.1322801262140274,"71":0.11510509997606277,"72":0.030199501663446426,"73":-0.14926156401634216,"74":0.19866690039634705,"75":0.12912815809249878,"76":0.17945188283920288,"77":-0.09253773838281631,"78":-0.19364513456821442,"79":0.16155409812927246}},"7":{"bias":0.1575063019990921,"weights":{"0":0.02158038318157196,"1":0.09149463474750519,"2":0.0636768639087677,"3":-0.03872434049844742,"4":0.15533879399299622,"5":-0.16091714799404144,"6":-0.14355196058750153,"7":0.0232371985912323,"8":0.13585877418518066,"9":0.12750262022018433,"10":-0.04726126417517662,"11":-0.03106640838086605,"12":0.09641582518815994,"13":-0.09330913424491882,"14":0.20130807161331177,"15":0.019102295860648155,"16":-0.13734865188598633,"17":-0.13590562343597412,"18":0.1279841959476471,"19":0.19332699477672577,"20":0.12718157470226288,"21":0.04317481070756912,"22":-0.15260550379753113,"23":-0.0790785700082779,"24":-0.13856945931911469,"25":0.21091847121715546,"26":0.19931107759475708,"27":0.1433502733707428,"28":0.04236816614866257,"29":-0.04000047221779823,"30":0.13481475412845612,"31":0.0411003939807415,"32":0.020510312169790268,"33":0.19561827182769775,"34":-0.17710307240486145,"35":0.10310021787881851,"36":-0.07303812354803085,"37":0.00900955218821764,"38":-0.18231114745140076,"39":-0.01018550805747509,"40":0.06497654318809509,"41":-0.044105760753154755,"42":-0.19007638096809387,"43":0.19025027751922607,"44":0.15215402841567993,"45":0.15053166449069977,"46":-0.07400006800889969,"47":-0.10060479491949081,"48":0.2020556777715683,"49":0.1146220788359642,"50":-0.1294625848531723,"51":0.05618993565440178,"52":-0.18619367480278015,"53":0.17908522486686707,"54":0.15811839699745178,"55":-0.07326525449752808,"56":0.11257196217775345,"57":-0.1411447376012802,"58":-0.12742847204208374,"59":-0.13255077600479126,"60":-0.18172729015350342,"61":0.1648879498243332,"62":-0.06261409819126129,"63":0.15649880468845367,"64":0.12358774244785309,"65":-0.07459002733230591,"66":0.11366887390613556,"67":0.08155201375484467,"68":0.005266310181468725,"69":-0.1448749303817749,"70":0.17917251586914062,"71":0.16618865728378296,"72":0.16139112412929535,"73":0.1804959774017334,"74":-0.061931755393743515,"75":0.01853240095078945,"76":-0.1865062117576599,"77":0.02244620956480503,"78":-0.1992805302143097,"79":-0.16267456114292145}},"8":{"bias":-0.12300124764442444,"weights":{"0":-0.07757484912872314,"1":-0.02180931717157364,"2":0.028199423104524612,"3":0.1606602668762207,"4":-0.08239191025495529,"5":0.05124548822641373,"6":0.15450114011764526,"7":-0.15537887811660767,"8":0.12424750626087189,"9":0.004428742919117212,"10":0.1535661816596985,"11":-0.11146877706050873,"12":0.08920223265886307,"13":0.11051981896162033,"14":0.17378823459148407,"15":0.1522887796163559,"16":-0.0951365977525711,"17":0.0017996769165620208,"18":-0.07827500998973846,"19":-0.14084556698799133,"20":-0.04174202308058739,"21":-0.07334977388381958,"22":-0.02907628007233143,"23":0.04355757683515549,"24":-0.1614484190940857,"25":-0.1558343917131424,"26":0.007102391682565212,"27":-0.04716964066028595,"28":0.03409753367304802,"29":0.1496085524559021,"30":0.189809188246727,"31":-0.13224904239177704,"32":0.12610240280628204,"33":-0.061790768057107925,"34":0.0929182693362236,"35":0.18826650083065033,"36":0.14761966466903687,"37":0.04490628466010094,"38":-0.10170682519674301,"39":-0.07443242520093918,"40":-0.05408139526844025,"41":-0.1938304752111435,"42":-0.19177722930908203,"43":-0.031110147014260292,"44":0.06864076852798462,"45":-0.10401047021150589,"46":-0.086744524538517,"47":-0.0793876126408577,"48":0.1512417048215866,"49":0.06568903475999832,"50":-0.1451212465763092,"51":0.13347254693508148,"52":0.10041113197803497,"53":-0.1676652878522873,"54":-0.04833095520734787,"55":-0.010542554780840874,"56":-0.13048961758613586,"57":-0.060044869780540466,"58":-0.09861033409833908,"59":-0.1962823122739792,"60":-0.007427932694554329,"61":0.18297886848449707,"62":-0.12936796247959137,"63":-0.14126192033290863,"64":-0.15830670297145844,"65":0.09478787332773209,"66":0.19465066492557526,"67":-0.17146873474121094,"68":-0.1069231629371643,"69":0.052444037050008774,"70":-0.04336279258131981,"71":0.07553771883249283,"72":-0.10498260706663132,"73":-0.0008402674575336277,"74":0.15650884807109833,"75":0.15438702702522278,"76":0.1708907186985016,"77":0.008056478574872017,"78":-0.1529693901538849,"79":-0.15415877103805542}},"9":{"bias":-0.1677825152873993,"weights":{"0":0.17656464874744415,"1":0.10064027458429337,"2":0.16661064326763153,"3":0.08789465576410294,"4":0.07153433561325073,"5":-0.0262850783765316,"6":-0.05618429556488991,"7":0.1800025850534439,"8":-0.17423903942108154,"9":0.17317983508110046,"10":-0.04310004040598869,"11":-0.11552077531814575,"12":0.1069537028670311,"13":-0.17504674196243286,"14":0.12938621640205383,"15":-0.0246916301548481,"16":0.05107298120856285,"17":-0.08862127363681793,"18":0.0867307260632515,"19":0.19637751579284668,"20":-0.1744038462638855,"21":-0.09684165567159653,"22":0.1233651340007782,"23":0.1511973738670349,"24":-0.11640354245901108,"25":-0.06602152436971664,"26":0.11361613124608994,"27":0.183613121509552,"28":-0.057314928621053696,"29":0.13066524267196655,"30":-0.10846186429262161,"31":-0.04215129092335701,"32":0.05322684720158577,"33":0.12597502768039703,"34":-0.15366005897521973,"35":0.1560262143611908,"36":0.16494646668434143,"37":-0.11833805590867996,"38":0.011764323338866234,"39":0.014303422532975674,"40":0.07397651672363281,"41":0.20037011802196503,"42":-0.18121974170207977,"43":0.04421736299991608,"44":0.12414810061454773,"45":0.0214448943734169,"46":-0.0799950659275055,"47":-0.0549943745136261,"48":-0.15180984139442444,"49":0.08228912204504013,"50":-0.15443682670593262,"51":-0.16679947078227997,"52":0.10574664920568466,"53":-0.03908749669790268,"54":-0.11485248059034348,"55":0.053088534623384476,"56":0.05165752395987511,"57":-0.11847193539142609,"58":0.18075551092624664,"59":-0.11612007766962051,"60":0.06468412280082703,"61":0.021582992747426033,"62":0.04776298999786377,"63":0.06990894675254822,"64":0.019560033455491066,"65":0.07665759325027466,"66":0.12150993943214417,"67":-0.11898881196975708,"68":0.07600156962871552,"69":0.1257934272289276,"70":-0.1685819923877716,"71":0.13277123868465424,"72":0.03954998776316643,"73":-0.08281301707029343,"74":0.07552339136600494,"75":-0.13797006011009216,"76":0.1205420047044754,"77":0.06001883000135422,"78":-0.13935841619968414,"79":-0.03419697657227516}},"10":{"bias":0.10123783349990845,"weights":{"0":-0.07697147876024246,"1":-0.027863580733537674,"2":0.1065945252776146,"3":-0.0955200269818306,"4":-0.06302067637443542,"5":0.021235186606645584,"6":-0.05478900298476219,"7":-0.06296119838953018,"8":0.10765531659126282,"9":-0.15668325126171112,"10":-0.07264687120914459,"11":0.087790347635746,"12":-0.1449696272611618,"13":-0.06679515540599823,"14":0.08781681209802628,"15":0.04054560512304306,"16":0.1800784319639206,"17":-0.0021837034728378057,"18":0.06796672940254211,"19":0.04997078329324722,"20":0.15169757604599,"21":-0.07316705584526062,"22":0.19388888776302338,"23":0.03481242433190346,"24":0.08975102752447128,"25":0.07440515607595444,"26":0.0038477452471852303,"27":0.11381759494543076,"28":-0.1684683859348297,"29":-0.07767342776060104,"30":0.014026675373315811,"31":-0.1346369981765747,"32":-0.14214636385440826,"33":0.04479815438389778,"34":-0.17240948975086212,"35":-0.19444940984249115,"36":0.16388773918151855,"37":-0.14930912852287292,"38":0.14941304922103882,"39":-0.12269886583089828,"40":0.14252395927906036,"41":-0.16012291610240936,"42":0.14511819183826447,"43":0.19766341149806976,"44":0.08826804161071777,"45":0.02215215377509594,"46":-0.019736142829060555,"47":-0.041135068982839584,"48":-0.07670969516038895,"49":0.08824466168880463,"50":0.06340795755386353,"51":0.04853425547480583,"52":0.034814100712537766,"53":0.01485732477158308,"54":0.10081879049539566,"55":0.09536167234182358,"56":-0.037861429154872894,"57":-0.08589783310890198,"58":-0.03035365790128708,"59":0.04819392040371895,"60":0.0816933885216713,"61":-0.19910867512226105,"62":0.17246133089065552,"63":-0.10547872632741928,"64":0.028629044070839882,"65":-0.13626770675182343,"66":-0.13136906921863556,"67":-0.0804494321346283,"68":-0.11835860460996628,"69":0.15468719601631165,"70":-0.1543169617652893,"71":0.11551918834447861,"72":-0.14933373034000397,"73":0.07200051844120026,"74":-0.03787565231323242,"75":0.030659455806016922,"76":0.167557492852211,"77":-0.09749006479978561,"78":0.07051470875740051,"79":-0.08894885331392288}},"11":{"bias":0.2040501981973648,"weights":{"0":-0.03634548559784889,"1":0.04984862357378006,"2":0.06438398361206055,"3":-0.07654769718647003,"4":-0.18864932656288147,"5":0.11977437883615494,"6":-0.10311374813318253,"7":-0.0224995668977499,"8":0.06507717072963715,"9":0.04052295908331871,"10":0.12907156348228455,"11":0.029077742248773575,"12":0.000958565971814096,"13":-0.09967142343521118,"14":0.041879281401634216,"15":-0.044554274529218674,"16":0.07947082817554474,"17":0.1390092670917511,"18":-0.15199001133441925,"19":0.14985764026641846,"20":0.019655032083392143,"21":0.05601917579770088,"22":0.05713962763547897,"23":-0.01839880831539631,"24":0.031872499734163284,"25":-0.0052019222639501095,"26":0.12983231246471405,"27":-0.15059414505958557,"28":-0.1357269287109375,"29":-0.07933852821588516,"30":0.027955884113907814,"31":-0.09050591289997101,"32":-0.09578167647123337,"33":-0.13411389291286469,"34":-0.17408263683319092,"35":0.09639342874288559,"36":0.009759578853845596,"37":0.01825357973575592,"38":0.1590648591518402,"39":0.14701078832149506,"40":0.12822812795639038,"41":0.042106129229068756,"42":0.08907297998666763,"43":0.09914814680814743,"44":0.10888751596212387,"45":0.008440515957772732,"46":-0.14748184382915497,"47":-0.028818976134061813,"48":-0.019474072381854057,"49":-0.02323361113667488,"50":-0.0856049507856369,"51":0.14790308475494385,"52":-0.08576847612857819,"53":-0.054010406136512756,"54":-0.14848676323890686,"55":0.017432987689971924,"56":0.13153697550296783,"57":0.1405198723077774,"58":-0.17943166196346283,"59":-0.07683047652244568,"60":0.16215552389621735,"61":0.09689868241548538,"62":-0.18664908409118652,"63":0.1144714429974556,"64":0.012278376147150993,"65":0.00415012426674366,"66":-0.026027433574199677,"67":-0.10116256028413773,"68":0.02953663095831871,"69":0.13527105748653412,"70":0.07476161420345306,"71":0.10658016055822372,"72":0.0017319084145128727,"73":-0.1840050369501114,"74":-0.100075364112854,"75":0.1764584183692932,"76":-0.08298936486244202,"77":-0.018482539802789688,"78":-0.12125754356384277,"79":-0.030741607770323753}},"12":{"bias":0.20864053070545197,"weights":{"0":0.16766221821308136,"1":0.09312282502651215,"2":-0.007293286267668009,"3":-0.1651424765586853,"4":0.10175681859254837,"5":0.038146015256643295,"6":-0.152706116437912,"7":-0.14400237798690796,"8":0.16627179086208344,"9":0.12230348587036133,"10":-0.1555144339799881,"11":0.22661465406417847,"12":0.05984868109226227,"13":0.1529720276594162,"14":0.13846513628959656,"15":0.1192675530910492,"16":0.0009421813301742077,"17":0.14658156037330627,"18":0.1826164871454239,"19":-0.02508774772286415,"20":-0.07041174918413162,"21":0.12329421192407608,"22":-0.05495043471455574,"23":0.09540645033121109,"24":-0.14231601357460022,"25":0.015797998756170273,"26":0.15435373783111572,"27":-0.11655820161104202,"28":0.17222626507282257,"29":-0.04488753154873848,"30":-0.15389233827590942,"31":0.1634669005870819,"32":0.06728028506040573,"33":0.043992649763822556,"34":0.019009150564670563,"35":0.09361652284860611,"36":0.18885260820388794,"37":0.07343017309904099,"38":0.11423740535974503,"39":-0.16950733959674835,"40":0.12024612724781036,"41":0.1064133271574974,"42":-0.13701458275318146,"43":-0.18126645684242249,"44":0.08699620515108109,"45":-0.07847338914871216,"46":0.2008303701877594,"47":0.0487658828496933,"48":-0.18034330010414124,"49":-0.1864555925130844,"50":0.12761767208576202,"51":-0.13389089703559875,"52":-0.19068579375743866,"53":0.011029738932847977,"54":-0.04153270274400711,"55":0.13126200437545776,"56":0.1338377743959427,"57":-0.0454845167696476,"58":-0.1685524582862854,"59":-0.1088288202881813,"60":0.09813734143972397,"61":-0.16212061047554016,"62":-0.08480755984783173,"63":0.17475080490112305,"64":-0.02847377397119999,"65":0.16672071814537048,"66":0.02941623516380787,"67":0.11576928943395615,"68":0.15955433249473572,"69":-0.19403816759586334,"70":-0.030091771855950356,"71":-0.08443127572536469,"72":-0.019351720809936523,"73":-0.1938002109527588,"74":-0.08790803700685501,"75":-0.0589853972196579,"76":0.002098461613059044,"77":0.19591335952281952,"78":0.05379999056458473,"79":-0.006750607863068581}},"13":{"bias":0.16937850415706635,"weights":{"0":0.0005074168439023197,"1":0.03752516582608223,"2":0.20260852575302124,"3":-0.003939240705221891,"4":0.05470351502299309,"5":0.031525202095508575,"6":-0.03585038706660271,"7":-0.023986902087926865,"8":-0.08468970656394958,"9":0.15628667175769806,"10":-0.02480613999068737,"11":0.21286818385124207,"12":-0.11013242602348328,"13":0.08329711109399796,"14":0.12084011733531952,"15":-0.1701137274503708,"16":-0.17517662048339844,"17":0.06577304005622864,"18":0.040848325937986374,"19":0.19029510021209717,"20":0.05768508091568947,"21":-0.01494455523788929,"22":-0.14249534904956818,"23":0.16357384622097015,"24":-0.09754683077335358,"25":0.12023922055959702,"26":-0.16491113603115082,"27":0.024003716185688972,"28":-0.07735143601894379,"29":0.19356167316436768,"30":0.13866712152957916,"31":-0.08393222093582153,"32":-0.04407750442624092,"33":-0.07098688930273056,"34":0.127756729722023,"35":-0.16059495508670807,"36":0.16783227026462555,"37":-0.04052244499325752,"38":0.13240021467208862,"39":0.11325723677873611,"40":0.1042565405368805,"41":-0.12026140093803406,"42":-0.0790618434548378,"43":0.04874043166637421,"44":0.029433678835630417,"45":-0.05854078009724617,"46":-0.170231893658638,"47":-0.0329551100730896,"48":-0.06025088578462601,"49":-0.00858756061643362,"50":0.17249475419521332,"51":-0.031323689967393875,"52":0.07879547029733658,"53":0.17516358196735382,"54":0.08885014802217484,"55":-0.127430260181427,"56":-0.0011179089779034257,"57":0.02480151318013668,"58":-0.07493236660957336,"59":0.05392942950129509,"60":-0.017543064430356026,"61":0.09419997036457062,"62":-0.1717812865972519,"63":-0.13111275434494019,"64":-0.07928721606731415,"65":0.009369288571178913,"66":-0.014800513163208961,"67":-0.1479823887348175,"68":-0.11309363692998886,"69":-0.1674201339483261,"70":0.1947222501039505,"71":0.00409244978800416,"72":0.13198015093803406,"73":0.07656000554561615,"74":0.168635755777359,"75":-0.1060093566775322,"76":0.0018201452912762761,"77":0.08506739884614944,"78":0.06596854329109192,"79":-0.1963779330253601}},"14":{"bias":-0.1601204127073288,"weights":{"0":0.09960833936929703,"1":0.06928224861621857,"2":-0.1502796858549118,"3":0.04603302478790283,"4":0.11911488324403763,"5":-0.033469099551439285,"6":0.10058676451444626,"7":0.1772785633802414,"8":-0.019262101501226425,"9":0.13191542029380798,"10":-0.08903761953115463,"11":0.10234857350587845,"12":0.09326224029064178,"13":0.19832316040992737,"14":0.01921200565993786,"15":0.08912190049886703,"16":-0.1400119960308075,"17":0.18212728202342987,"18":0.16851530969142914,"19":0.10683688521385193,"20":0.19599153101444244,"21":0.1729871928691864,"22":-0.04488026723265648,"23":0.06886839866638184,"24":-0.15785734355449677,"25":0.11069215089082718,"26":0.16886015236377716,"27":-0.12185954302549362,"28":-0.1655503809452057,"29":0.20128190517425537,"30":-0.020335448905825615,"31":0.11338455975055695,"32":-0.06086260825395584,"33":0.20579347014427185,"34":-0.03444045037031174,"35":-0.003064545802772045,"36":-0.030987165868282318,"37":0.10063804686069489,"38":-0.11247266829013824,"39":0.19849161803722382,"40":-0.016972968354821205,"41":-0.11522120982408524,"42":-0.06600014120340347,"43":-0.023660488426685333,"44":0.002748452592641115,"45":0.09757053107023239,"46":0.12506698071956635,"47":-0.12444684654474258,"48":-0.11234109848737717,"49":0.16147081553936005,"50":-0.03594738990068436,"51":-0.07004784792661667,"52":0.1354215443134308,"53":0.10010976344347,"54":-0.03902527317404747,"55":0.19540730118751526,"56":0.02513067051768303,"57":-0.030082061886787415,"58":-0.16599753499031067,"59":-0.01773843728005886,"60":0.10990548133850098,"61":0.08127450942993164,"62":-0.07992979139089584,"63":-0.18747398257255554,"64":-0.15008945763111115,"65":0.08474496006965637,"66":0.15533235669136047,"67":0.1840483546257019,"68":-0.12566982209682465,"69":0.10365600883960724,"70":-0.15416282415390015,"71":-0.16569821536540985,"72":0.05781950801610947,"73":-0.10390044003725052,"74":0.002235261257737875,"75":0.03047753870487213,"76":-0.1934453248977661,"77":-0.0193741824477911,"78":-0.05437595397233963,"79":0.03371012583374977}},"15":{"bias":-0.03394106402993202,"weights":{"0":-0.10182777047157288,"1":0.05482363700866699,"2":0.11068632453680038,"3":0.19450344145298004,"4":-0.06736382842063904,"5":-0.01130202878266573,"6":-0.1497366577386856,"7":0.07964469492435455,"8":0.11468365788459778,"9":-0.10424667596817017,"10":-0.035956598818302155,"11":-0.023493416607379913,"12":0.011499321088194847,"13":0.153403177857399,"14":-0.110003761947155,"15":-0.15022344887256622,"16":0.12491825968027115,"17":0.01684442162513733,"18":-0.09753081202507019,"19":-0.028366945683956146,"20":-0.024924566969275475,"21":-0.00628126785159111,"22":0.11856743693351746,"23":-0.10995878279209137,"24":0.13979177176952362,"25":-0.16756488382816315,"26":-0.1417044997215271,"27":-0.027891114354133606,"28":0.0009684180258773267,"29":0.1136268600821495,"30":-0.14657819271087646,"31":-0.0990835651755333,"32":-0.014106462709605694,"33":0.013703737407922745,"34":-0.06325763463973999,"35":0.09553012251853943,"36":0.12800858914852142,"37":0.0009201361099258065,"38":0.17336319386959076,"39":0.01370949950069189,"40":-0.07643447071313858,"41":-0.07924947142601013,"42":-0.1167544424533844,"43":-0.15577350556850433,"44":0.13045255839824677,"45":0.07607504725456238,"46":0.039797667413949966,"47":-0.16178004443645477,"48":0.03936617448925972,"49":0.05723998323082924,"50":-0.08801467716693878,"51":0.07546883821487427,"52":0.09515108168125153,"53":0.005374463740736246,"54":0.01284131221473217,"55":-0.18794389069080353,"56":0.08538221567869186,"57":-0.012286385521292686,"58":0.00708456477150321,"59":-0.05429766699671745,"60":0.0674944669008255,"61":0.19402658939361572,"62":-0.16494058072566986,"63":0.14688903093338013,"64":-0.15729612112045288,"65":0.1149991825222969,"66":-0.058058854192495346,"67":0.11997609585523605,"68":0.07827910035848618,"69":0.08240199834108353,"70":0.0016003010096028447,"71":-0.016498375684022903,"72":-0.09042064845561981,"73":-0.05165370926260948,"74":-0.19379787147045135,"75":0.06716924160718918,"76":0.05633457005023956,"77":0.0084941815584898,"78":-0.18767714500427246,"79":0.12790657579898834}},"16":{"bias":-0.03422391787171364,"weights":{"0":-0.17857255041599274,"1":-0.19703012704849243,"2":-0.18296189606189728,"3":0.00005914829671382904,"4":-0.06502524763345718,"5":-0.06053267419338226,"6":-0.0981672927737236,"7":0.01690591499209404,"8":-0.16791562736034393,"9":0.1470797061920166,"10":-0.07199984788894653,"11":-0.08250648528337479,"12":-0.08157982677221298,"13":0.15850573778152466,"14":0.18084071576595306,"15":-0.075178362429142,"16":0.11659567058086395,"17":0.1443239003419876,"18":0.10283439606428146,"19":0.10826793313026428,"20":0.1788516342639923,"21":-0.030352797359228134,"22":0.12501338124275208,"23":-0.13483832776546478,"24":0.1690303534269333,"25":0.05303434655070305,"26":0.1640527844429016,"27":-0.003589462023228407,"28":-0.008637804538011551,"29":0.014311508275568485,"30":-0.10010121762752533,"31":0.09058966487646103,"32":0.12002472579479218,"33":-0.15982291102409363,"34":-0.07422781735658646,"35":-0.00890551321208477,"36":0.09174364805221558,"37":0.17257967591285706,"38":-0.17477066814899445,"39":-0.00613279826939106,"40":0.01364610344171524,"41":0.18411806225776672,"42":0.10187885165214539,"43":0.08010918647050858,"44":-0.12899471819400787,"45":0.14604918658733368,"46":0.1257638782262802,"47":0.13271382451057434,"48":0.15678703784942627,"49":0.07284912467002869,"50":-0.15964023768901825,"51":0.014540014788508415,"52":0.12985727190971375,"53":0.11263462901115417,"54":0.05042894557118416,"55":-0.17959760129451752,"56":-0.15835265815258026,"57":-0.044999100267887115,"58":-0.06955799460411072,"59":0.18526357412338257,"60":-0.05445421114563942,"61":0.1826903522014618,"62":0.1568957269191742,"63":0.10656526684761047,"64":-0.11442137509584427,"65":0.004850876051932573,"66":-0.10276102274656296,"67":0.12305905669927597,"68":-0.03769026696681976,"69":-0.03847131505608559,"70":-0.12400693446397781,"71":-0.08504188060760498,"72":-0.19957220554351807,"73":0.10454891622066498,"74":0.015784986317157745,"75":-0.055415078997612,"76":0.08131474256515503,"77":0.025494376197457314,"78":0.0018822369165718555,"79":0.04543735831975937}},"17":{"bias":0.13187852501869202,"weights":{"0":-0.15968188643455505,"1":-0.03203214704990387,"2":0.19270454347133636,"3":-0.08892589807510376,"4":0.14937624335289001,"5":-0.04088100045919418,"6":-0.09674851596355438,"7":0.1660434603691101,"8":0.07555969804525375,"9":0.18004749715328217,"10":-0.11391891539096832,"11":-0.15690161287784576,"12":-0.020914148539304733,"13":-0.05071370303630829,"14":-0.054768919944763184,"15":-0.1852646768093109,"16":-0.06222296133637428,"17":-0.03629431501030922,"18":-0.12457267940044403,"19":-0.0737806186079979,"20":-0.020172180607914925,"21":-0.026854395866394043,"22":-0.1654052585363388,"23":0.09593717753887177,"24":0.11542627215385437,"25":0.1547275334596634,"26":0.04309972748160362,"27":0.09440372884273529,"28":0.003265456994995475,"29":0.12150455266237259,"30":0.017355555668473244,"31":-0.17495130002498627,"32":0.15535660088062286,"33":-0.14027346670627594,"34":0.1508379578590393,"35":0.15749536454677582,"36":0.15654736757278442,"37":-0.06692536175251007,"38":0.11356805264949799,"39":0.151622012257576,"40":0.14549176394939423,"41":-0.1831444501876831,"42":-0.06374713033437729,"43":-0.04611646384000778,"44":0.16826260089874268,"45":-0.06882043182849884,"46":-0.14393101632595062,"47":0.03843536600470543,"48":0.1353762298822403,"49":0.002484752796590328,"50":0.17139089107513428,"51":0.08204355835914612,"52":0.10630407929420471,"53":0.07691401243209839,"54":-0.014906667172908783,"55":0.19807420670986176,"56":-0.13879956305027008,"57":-0.09746772795915604,"58":-0.09085237979888916,"59":0.16068707406520844,"60":-0.11418729275465012,"61":-0.14569507539272308,"62":-0.051458731293678284,"63":0.11781950294971466,"64":0.14261797070503235,"65":-0.051204800605773926,"66":-0.14336451888084412,"67":0.057837165892124176,"68":-0.14888949692249298,"69":-0.021384146064519882,"70":0.17644357681274414,"71":0.01631532423198223,"72":-0.13991409540176392,"73":0.027920575812458992,"74":-0.16074137389659882,"75":0.008611938916146755,"76":-0.14640986919403076,"77":0.16437314450740814,"78":-0.10394053906202316,"79":0.032198138535022736}},"18":{"bias":-0.11796066164970398,"weights":{"0":0.0028625887352973223,"1":-0.14125794172286987,"2":0.18466798961162567,"3":0.17050422728061676,"4":0.08885085582733154,"5":0.01221428718417883,"6":-0.057883370667696,"7":-0.14392879605293274,"8":-0.021275628358125687,"9":-0.099359430372715,"10":-0.039026714861392975,"11":-0.18107439577579498,"12":0.08947861194610596,"13":0.12904272973537445,"14":0.16744719445705414,"15":0.012600596062839031,"16":-0.04596627876162529,"17":0.09798829257488251,"18":0.1869393289089203,"19":0.030107511207461357,"20":-0.012600704096257687,"21":-0.1760353446006775,"22":-0.054729655385017395,"23":0.04030786082148552,"24":0.010332996025681496,"25":-0.16192512214183807,"26":0.08190659433603287,"27":-0.13489888608455658,"28":-0.19579333066940308,"29":-0.035240817815065384,"30":-0.06266425549983978,"31":-0.1711050570011139,"32":0.19155262410640717,"33":0.07316391915082932,"34":-0.2030472606420517,"35":0.10674268752336502,"36":0.06626028567552567,"37":-0.12519806623458862,"38":0.11846742779016495,"39":-0.13677003979682922,"40":-0.11826366186141968,"41":0.03380084037780762,"42":-0.08908344060182571,"43":-0.08399579674005508,"44":0.09295415878295898,"45":-0.09312579780817032,"46":0.10700537264347076,"47":0.04446134343743324,"48":-0.09827768057584763,"49":-0.19651728868484497,"50":-0.009352886117994785,"51":-0.020718254148960114,"52":0.040651340037584305,"53":-0.022654404863715172,"54":0.06510751694440842,"55":0.174529567360878,"56":0.022625887766480446,"57":-0.1736169159412384,"58":-0.03945838660001755,"59":0.10125155001878738,"60":-0.1534043699502945,"61":0.1814442127943039,"62":-0.008411736227571964,"63":0.06547343730926514,"64":-0.010384206660091877,"65":-0.11653594672679901,"66":-0.08438954502344131,"67":0.0227773729711771,"68":0.1788800209760666,"69":0.10893771052360535,"70":0.18105602264404297,"71":-0.03105901926755905,"72":-0.18689583241939545,"73":-0.02249256521463394,"74":0.08961400389671326,"75":-0.07933644950389862,"76":-0.03943749889731407,"77":0.18911391496658325,"78":0.1869446188211441,"79":-0.05954389646649361}},"19":{"bias":0.16025584936141968,"weights":{"0":-0.1334563046693802,"1":-0.09092046320438385,"2":-0.10139308124780655,"3":-0.08544265478849411,"4":-0.04683217406272888,"5":0.07402840256690979,"6":-0.039954740554094315,"7":-0.17112363874912262,"8":-0.030515087768435478,"9":0.09395729750394821,"10":0.1498757004737854,"11":-0.027025818824768066,"12":0.10135123133659363,"13":-0.1789693683385849,"14":0.19480089843273163,"15":0.08883407711982727,"16":0.1277696192264557,"17":0.0127562852576375,"18":0.1574266254901886,"19":-0.11491667479276657,"20":0.1415502429008484,"21":0.12513600289821625,"22":0.06015264242887497,"23":0.04924875497817993,"24":-0.05077023804187775,"25":-0.04809578135609627,"26":-0.12263590097427368,"27":0.09549853950738907,"28":-0.1600101739168167,"29":0.1187853291630745,"30":0.022789157927036285,"31":0.16599850356578827,"32":-0.04652200639247894,"33":-0.044584766030311584,"34":-0.19115835428237915,"35":-0.1443551480770111,"36":-0.1507868617773056,"37":-0.157242551445961,"38":-0.13587409257888794,"39":-0.1038532629609108,"40":-0.18007390201091766,"41":0.0327594168484211,"42":0.18846070766448975,"43":0.12281151860952377,"44":0.13917158544063568,"45":0.09850030392408371,"46":0.18858130276203156,"47":-0.08072487264871597,"48":0.08805788308382034,"49":-0.08032102882862091,"50":0.08625899255275726,"51":-0.03686359524726868,"52":0.009597975760698318,"53":0.18813872337341309,"54":-0.13304319977760315,"55":0.1067533940076828,"56":0.011519065126776695,"57":-0.05239808186888695,"58":0.050221752375364304,"59":-0.1035267636179924,"60":0.06013237684965134,"61":-0.07045023143291473,"62":-0.19769607484340668,"63":-0.17268382012844086,"64":-0.011113793589174747,"65":-0.03900183364748955,"66":0.14338333904743195,"67":0.0977109968662262,"68":-0.09488357603549957,"69":-0.1318432092666626,"70":0.1815372109413147,"71":0.07547473907470703,"72":-0.10788008570671082,"73":0.09508724510669708,"74":-0.14524178206920624,"75":0.13202731311321259,"76":-0.06860124319791794,"77":-0.13837434351444244,"78":-0.14743393659591675,"79":-0.1642487645149231}},"20":{"bias":-0.1504897177219391,"weights":{"0":-0.040515005588531494,"1":-0.07546509802341461,"2":0.17991586029529572,"3":0.12946555018424988,"4":-0.09379348903894424,"5":-0.0023352927528321743,"6":0.020668452605605125,"7":0.06820208579301834,"8":-0.18698738515377045,"9":-0.0027551590465009212,"10":0.12945020198822021,"11":-0.09140679240226746,"12":0.02719833515584469,"13":0.004417876712977886,"14":0.01695905439555645,"15":-0.1762121170759201,"16":0.20026034116744995,"17":0.10527639091014862,"18":0.02323712408542633,"19":-0.10141032189130783,"20":-0.1611810028553009,"21":0.0011160565773025155,"22":-0.157711461186409,"23":0.03702468052506447,"24":-0.13791632652282715,"25":0.10718532651662827,"26":-0.10289847105741501,"27":0.1997683048248291,"28":0.19946308434009552,"29":0.1408175230026245,"30":-0.13442681729793549,"31":0.00542976800352335,"32":0.09944290667772293,"33":0.1404685229063034,"34":-0.165865957736969,"35":-0.031898774206638336,"36":0.09565691649913788,"37":0.08384253084659576,"38":0.017506012693047523,"39":0.01789088360965252,"40":0.1940365433692932,"41":-0.17636723816394806,"42":-0.11003944277763367,"43":-0.030141422525048256,"44":0.07289023697376251,"45":-0.04848620295524597,"46":0.15162919461727142,"47":-0.04574848711490631,"48":-0.15893489122390747,"49":-0.10549233108758926,"50":0.12123862653970718,"51":-0.08062173426151276,"52":-0.03153705224394798,"53":-0.01712808944284916,"54":0.05943526700139046,"55":0.12796062231063843,"56":0.15932458639144897,"57":-0.054837826639413834,"58":-0.056270621716976166,"59":0.15114466845989227,"60":-0.011262648738920689,"61":-0.0028150947764515877,"62":-0.17255839705467224,"63":0.14685916900634766,"64":-0.1845698356628418,"65":-0.10999555140733719,"66":0.1266552060842514,"67":0.08587837219238281,"68":0.11158357560634613,"69":0.12966611981391907,"70":-0.07871399819850922,"71":0.02731773443520069,"72":0.027206428349018097,"73":0.18452854454517365,"74":0.0017834461759775877,"75":0.049378007650375366,"76":-0.13988663256168365,"77":0.16520808637142181,"78":0.14384888112545013,"79":0.19991958141326904}},"21":{"bias":0.014549504965543747,"weights":{"0":0.01827293261885643,"1":0.08640949428081512,"2":-0.026838188990950584,"3":0.035829998552799225,"4":0.18422257900238037,"5":-0.003963022027164698,"6":-0.09030813723802567,"7":0.18146559596061707,"8":-0.12384376674890518,"9":-0.16512437164783478,"10":0.17820197343826294,"11":-0.05037588253617287,"12":-0.15117968618869781,"13":-0.1226397454738617,"14":-0.08545740693807602,"15":0.13550838828086853,"16":-0.07628582417964935,"17":-0.02495650202035904,"18":-0.12469297647476196,"19":0.17364299297332764,"20":0.06827236711978912,"21":-0.03271321579813957,"22":-0.12696267664432526,"23":-0.17737573385238647,"24":0.018528928980231285,"25":0.17741359770298004,"26":-0.12081312388181686,"27":-0.14367631077766418,"28":-0.13909173011779785,"29":-0.1429009884595871,"30":-0.08728258311748505,"31":-0.12028433382511139,"32":-0.12204983830451965,"33":-0.11826390027999878,"34":0.12993726134300232,"35":0.12962038815021515,"36":0.16507476568222046,"37":-0.03778049722313881,"38":0.009435939602553844,"39":0.16280658543109894,"40":-0.08909556269645691,"41":-0.09965062886476517,"42":0.14545811712741852,"43":0.12066470086574554,"44":0.026096468791365623,"45":-0.07868983596563339,"46":0.10913756489753723,"47":-0.06540799140930176,"48":0.06085842847824097,"49":0.013325479812920094,"50":0.06851102411746979,"51":0.17730635404586792,"52":0.05391256511211395,"53":-0.17100466787815094,"54":0.09360361099243164,"55":0.1738635152578354,"56":-0.02007925510406494,"57":0.04265936464071274,"58":-0.07445737719535828,"59":-0.020388206467032433,"60":0.05277852341532707,"61":0.15867912769317627,"62":0.1782090663909912,"63":-0.08697061985731125,"64":-0.17504464089870453,"65":0.19737589359283447,"66":0.13234038650989532,"67":-0.19617600739002228,"68":-0.13486351072788239,"69":0.15753692388534546,"70":-0.14843803644180298,"71":-0.09735607355833054,"72":-0.01375914178788662,"73":0.1833321750164032,"74":-0.10147993266582489,"75":0.05566757544875145,"76":-0.025872742757201195,"77":0.125409334897995,"78":0.06559622287750244,"79":-0.02984694391489029}},"22":{"bias":0.014555180445313454,"weights":{"0":0.1354975402355194,"1":0.05239476263523102,"2":0.1424276977777481,"3":-0.028897332027554512,"4":0.15160301327705383,"5":-0.16765661537647247,"6":0.20161689817905426,"7":0.14269855618476868,"8":-0.03953496366739273,"9":-0.040593765676021576,"10":0.08512328565120697,"11":0.038453880697488785,"12":0.029119467362761497,"13":-0.12615203857421875,"14":0.036542050540447235,"15":-0.01286272332072258,"16":0.014449752867221832,"17":0.013962127268314362,"18":-0.18524186313152313,"19":-0.010579684749245644,"20":0.026473239064216614,"21":-0.05743435025215149,"22":-0.18276767432689667,"23":0.17580699920654297,"24":0.2041766494512558,"25":0.16326111555099487,"26":-0.06425251811742783,"27":0.008084955625236034,"28":0.15226994454860687,"29":-0.12674497067928314,"30":-0.09089907258749008,"31":0.17442315816879272,"32":0.07425623387098312,"33":0.12203113734722137,"34":0.16159240901470184,"35":0.023031145334243774,"36":-0.060889530926942825,"37":0.0098721319809556,"38":0.009823531843721867,"39":-0.16177569329738617,"40":0.07836950570344925,"41":-0.13788332045078278,"42":0.08351418375968933,"43":0.08988919109106064,"44":-0.09677165746688843,"45":0.0962090864777565,"46":0.04161340743303299,"47":0.00922948494553566,"48":0.0796457901597023,"49":0.017425986006855965,"50":0.1804535835981369,"51":-0.12347934395074844,"52":0.07601047307252884,"53":-0.01447825413197279,"54":-0.134872168302536,"55":-0.04610200226306915,"56":0.02232329547405243,"57":0.07939215749502182,"58":-0.027592673897743225,"59":0.19530797004699707,"60":0.19842323660850525,"61":0.1350402683019638,"62":-0.1973736584186554,"63":-0.1749366968870163,"64":0.07308303564786911,"65":0.13293325901031494,"66":0.019106177613139153,"67":0.008095762692391872,"68":0.02934844046831131,"69":0.035180896520614624,"70":-0.0780954360961914,"71":-0.09501012414693832,"72":0.10794708132743835,"73":-0.10128095746040344,"74":-0.02351071685552597,"75":-0.0009553041309118271,"76":-0.030800528824329376,"77":-0.017149250954389572,"78":0.041558582335710526,"79":0.07913914322853088}},"23":{"bias":0.13062626123428345,"weights":{"0":-0.18587248027324677,"1":-0.05677896365523338,"2":-0.021218126639723778,"3":-0.028201604261994362,"4":-0.18228694796562195,"5":-0.11129792034626007,"6":-0.008568409830331802,"7":0.04551132023334503,"8":-0.05123813450336456,"9":0.04368772730231285,"10":-0.15737318992614746,"11":-0.14603066444396973,"12":-0.16762077808380127,"13":-0.013073675334453583,"14":-0.05431598797440529,"15":-0.16445276141166687,"16":-0.061312735080718994,"17":-0.1924845278263092,"18":0.1008836179971695,"19":0.19103945791721344,"20":-0.017967958003282547,"21":-0.028042297810316086,"22":-0.15036341547966003,"23":0.07070448994636536,"24":0.1923573762178421,"25":-0.08934654295444489,"26":0.19400475919246674,"27":0.1921641230583191,"28":-0.15660527348518372,"29":0.1831914335489273,"30":-0.024112766608595848,"31":0.1513778567314148,"32":-0.17853474617004395,"33":-0.17442038655281067,"34":-0.14917708933353424,"35":-0.01307230070233345,"36":0.0916973128914833,"37":-0.11374568194150925,"38":0.06068921089172363,"39":-0.04770375043153763,"40":-0.11482828855514526,"41":0.07293698191642761,"42":0.19323581457138062,"43":-0.1222391352057457,"44":0.14366352558135986,"45":0.13813316822052002,"46":-0.11299343407154083,"47":-0.04463547468185425,"48":0.13520993292331696,"49":0.18341650068759918,"50":-0.08573006838560104,"51":-0.1426369994878769,"52":0.11140237003564835,"53":-0.07390724122524261,"54":-0.17965488135814667,"55":-0.11854527145624161,"56":-0.033428944647312164,"57":0.02445957623422146,"58":0.062463853508234024,"59":0.16741587221622467,"60":0.17143620550632477,"61":-0.16569437086582184,"62":-0.054514769464731216,"63":0.029696227982640266,"64":0.19193802773952484,"65":-0.04465576633810997,"66":-0.15698105096817017,"67":-0.18273216485977173,"68":0.1471143215894699,"69":-0.1251537948846817,"70":-0.023262837901711464,"71":-0.013643576763570309,"72":0.008074160665273666,"73":-0.05340305715799332,"74":0.16194412112236023,"75":-0.11647220700979233,"76":0.12188266217708588,"77":-0.06300108879804611,"78":-0.17478004097938538,"79":-0.14689980447292328}},"24":{"bias":-0.1682170033454895,"weights":{"0":0.11969627439975739,"1":0.1119612604379654,"2":-0.007607742212712765,"3":0.1433793157339096,"4":0.19362026453018188,"5":-0.11948226392269135,"6":0.029674241319298744,"7":-0.009680695831775665,"8":0.11968527734279633,"9":-0.14816199243068695,"10":-0.11191672831773758,"11":-0.08692434430122375,"12":0.06352432072162628,"13":-0.10988634079694748,"14":0.10190845280885696,"15":0.1953630894422531,"16":0.05518534779548645,"17":0.06670595705509186,"18":-0.040186453610658646,"19":-0.17193101346492767,"20":0.12232464551925659,"21":-0.16400890052318573,"22":-0.022459831088781357,"23":-0.06498908251523972,"24":-0.07266838103532791,"25":-0.01647130399942398,"26":-0.0391145683825016,"27":0.016205545514822006,"28":0.08402426540851593,"29":-0.023647498339414597,"30":-0.08833110332489014,"31":-0.07711238414049149,"32":-0.01909240521490574,"33":0.04783431068062782,"34":0.007458149921149015,"35":-0.11112884432077408,"36":0.10432572662830353,"37":-0.03339533507823944,"38":0.0009923878824338317,"39":-0.12453681230545044,"40":0.00017175312677863985,"41":0.05589357390999794,"42":-0.18387475609779358,"43":-0.12771372497081757,"44":-0.0032188883051276207,"45":0.12333909422159195,"46":0.1881597489118576,"47":0.09770423918962479,"48":-0.11853919178247452,"49":0.06956297159194946,"50":0.12472441047430038,"51":-0.03367169201374054,"52":-0.06556247174739838,"53":-0.07698704302310944,"54":0.05650543421506882,"55":-0.07396762073040009,"56":0.1696617305278778,"57":-0.07548578083515167,"58":-0.1749805510044098,"59":0.15385353565216064,"60":-0.03886235132813454,"61":0.18022003769874573,"62":0.16749899089336395,"63":0.05236915871500969,"64":-0.1146257147192955,"65":-0.1517525166273117,"66":-0.1201561912894249,"67":0.11100035905838013,"68":-0.0686100423336029,"69":0.07069696485996246,"70":-0.08860034495592117,"71":0.17201673984527588,"72":-0.15166887640953064,"73":0.04014252498745918,"74":0.06549003720283508,"75":-0.10569652915000916,"76":0.15188637375831604,"77":-0.18436653912067413,"78":0.1743236482143402,"79":-0.18910656869411469}},"25":{"bias":0.07535422593355179,"weights":{"0":0.19361512362957,"1":-0.07709827274084091,"2":0.001963143702596426,"3":0.05580836161971092,"4":-0.16579163074493408,"5":0.12571844458580017,"6":0.11712660640478134,"7":0.09129490703344345,"8":-0.05827948451042175,"9":-0.1397624909877777,"10":-0.08192690461874008,"11":-0.09126399457454681,"12":0.16010549664497375,"13":0.18244805932044983,"14":-0.07491479814052582,"15":0.16278867423534393,"16":-0.20064806938171387,"17":0.16503724455833435,"18":-0.13939303159713745,"19":0.03650068864226341,"20":0.13761015236377716,"21":-0.19467896223068237,"22":-0.012834722176194191,"23":0.059718430042266846,"24":0.11604522913694382,"25":-0.11606472730636597,"26":0.08858543634414673,"27":-0.016232628375291824,"28":0.08242421597242355,"29":0.03668573871254921,"30":-0.06213298812508583,"31":0.02206377685070038,"32":0.15563097596168518,"33":-0.1406196653842926,"34":-0.01290964800864458,"35":0.07430608570575714,"36":-0.05235801264643669,"37":-0.06677301228046417,"38":-0.07655566185712814,"39":-0.16767868399620056,"40":0.10671097785234451,"41":-0.14491383731365204,"42":-0.17882707715034485,"43":0.14827942848205566,"44":0.011871837079524994,"45":-0.14261533319950104,"46":0.07196114957332611,"47":-0.1283382773399353,"48":-0.1761433482170105,"49":0.13132263720035553,"50":-0.1646382063627243,"51":-0.194435715675354,"52":0.06090201437473297,"53":-0.029751503840088844,"54":0.09145986288785934,"55":-0.07790306955575943,"56":0.06481773406267166,"57":-0.006968304049223661,"58":0.1843685805797577,"59":-0.1639706939458847,"60":0.12813341617584229,"61":0.13956321775913239,"62":-0.03151623532176018,"63":-0.05390169844031334,"64":0.010407290421426296,"65":-0.06333928555250168,"66":0.0008152297232300043,"67":-0.1867966651916504,"68":0.1411336213350296,"69":-0.0315496064722538,"70":0.12571661174297333,"71":0.18536114692687988,"72":-0.016866769641637802,"73":-0.13074642419815063,"74":-0.06602803617715836,"75":0.017990613356232643,"76":-0.15032334625720978,"77":0.06787002831697464,"78":0.03878513351082802,"79":-0.17464891076087952}},"26":{"bias":0.09171393513679504,"weights":{"0":-0.08885086327791214,"1":-0.023441696539521217,"2":0.07685689628124237,"3":-0.09806516766548157,"4":0.026834813877940178,"5":0.10775477439165115,"6":0.04022101312875748,"7":-0.12418955564498901,"8":-0.013919143006205559,"9":-0.01654701679944992,"10":-0.16312876343727112,"11":0.11318566650152206,"12":-0.1970067322254181,"13":-0.1104535236954689,"14":-0.11514782160520554,"15":0.011828127317130566,"16":-0.16423100233078003,"17":-0.022845305502414703,"18":0.1738194078207016,"19":0.12116444110870361,"20":0.14218643307685852,"21":0.13404440879821777,"22":-0.15787723660469055,"23":-0.098448745906353,"24":0.0803159847855568,"25":0.09003240615129471,"26":-0.16268675029277802,"27":0.0515378974378109,"28":-0.07456078380346298,"29":-0.11031194031238556,"30":0.13082191348075867,"31":-0.022796835750341415,"32":-0.1751844584941864,"33":-0.11176598817110062,"34":-0.03033193200826645,"35":-0.1123061254620552,"36":0.1377568542957306,"37":-0.03661632165312767,"38":-0.06444117426872253,"39":-0.09687937051057816,"40":0.07645516842603683,"41":-0.1041412279009819,"42":-0.02255738526582718,"43":0.026732826605439186,"44":-0.053223468363285065,"45":-0.14627017080783844,"46":0.08813148736953735,"47":0.15443673729896545,"48":0.12981268763542175,"49":-0.07907456159591675,"50":0.032974470406770706,"51":-0.1740734577178955,"52":-0.10498134046792984,"53":0.17758165299892426,"54":0.004130459390580654,"55":-0.0021930269431322813,"56":0.11763877421617508,"57":0.11740585416555405,"58":-0.09815123677253723,"59":-0.11188309639692307,"60":0.1026228591799736,"61":0.07846537232398987,"62":-0.06000715494155884,"63":0.13718338310718536,"64":0.07408611476421356,"65":-0.04375925660133362,"66":-0.08209516108036041,"67":0.08353567123413086,"68":-0.06695076823234558,"69":-0.1704740971326828,"70":-0.0750012919306755,"71":0.1446554809808731,"72":-0.06707043200731277,"73":-0.19258175790309906,"74":0.029608894139528275,"75":0.015109941363334656,"76":0.02211920917034149,"77":-0.06208691745996475,"78":0.12381920963525772,"79":-0.060618236660957336}},"27":{"bias":0.024239230901002884,"weights":{"0":0.11142619699239731,"1":0.14634586870670319,"2":-0.002054921817034483,"3":0.06701427698135376,"4":-0.02729523926973343,"5":-0.006506886798888445,"6":0.03618847578763962,"7":0.1319272518157959,"8":-0.11920050531625748,"9":0.18346357345581055,"10":0.18061719834804535,"11":-0.15090644359588623,"12":0.20153886079788208,"13":-0.08499881625175476,"14":0.0005538018885999918,"15":0.034548088908195496,"16":0.20181716978549957,"17":-0.0883677527308464,"18":0.019813697785139084,"19":-0.09406771510839462,"20":0.1910308301448822,"21":0.02469608001410961,"22":0.05791454017162323,"23":0.013616901822388172,"24":-0.05663471296429634,"25":0.19624099135398865,"26":-0.13679346442222595,"27":0.050791602581739426,"28":0.04169130697846413,"29":-0.07979961484670639,"30":0.15118567645549774,"31":0.08955331891775131,"32":0.07467906177043915,"33":-0.014120968990027905,"34":0.11437448859214783,"35":0.12956339120864868,"36":-0.1526263952255249,"37":-0.1730400025844574,"38":-0.005752785596996546,"39":-0.1974700391292572,"40":0.07419867068529129,"41":-0.07474629580974579,"42":-0.013573994860053062,"43":-0.054200176149606705,"44":0.04986261948943138,"45":-0.08416080474853516,"46":0.12358246743679047,"47":0.009029845707118511,"48":-0.1347557157278061,"49":-0.13604485988616943,"50":-0.055874794721603394,"51":-0.009983647614717484,"52":-0.19507470726966858,"53":-0.17168177664279938,"54":0.08003250509500504,"55":0.02966691181063652,"56":0.060940951108932495,"57":-0.07442905753850937,"58":-0.11320538818836212,"59":0.13421349227428436,"60":0.021845325827598572,"61":0.10992170870304108,"62":-0.0290257316082716,"63":-0.14570261538028717,"64":0.053431835025548935,"65":0.13729490339756012,"66":0.1118982583284378,"67":0.1789734661579132,"68":-0.17647841572761536,"69":-0.09902933984994888,"70":0.19549211859703064,"71":0.06156155839562416,"72":-0.1664837747812271,"73":0.1304483562707901,"74":-0.13780216872692108,"75":-0.17795798182487488,"76":-0.11495567113161087,"77":-0.1314692348241806,"78":-0.12865273654460907,"79":-0.1977289617061615}},"28":{"bias":-0.13533377647399902,"weights":{"0":-0.03640059381723404,"1":0.030819494277238846,"2":-0.040110908448696136,"3":-0.06660620868206024,"4":0.160439133644104,"5":0.1403704434633255,"6":-0.05884404107928276,"7":0.0832192674279213,"8":0.0970413088798523,"9":0.013394851237535477,"10":-0.15874521434307098,"11":0.15732049942016602,"12":0.15348178148269653,"13":0.018865203484892845,"14":0.19724202156066895,"15":-0.02378734014928341,"16":0.1400177925825119,"17":0.16684843599796295,"18":-0.13177567720413208,"19":-0.10026000440120697,"20":0.11857081204652786,"21":-0.032797303050756454,"22":-0.08887916803359985,"23":-0.10181643813848495,"24":0.009059572592377663,"25":0.11174508929252625,"26":0.19141420722007751,"27":-0.05920378491282463,"28":0.0004232391365803778,"29":-0.11786716431379318,"30":-0.11812025308609009,"31":0.04438098892569542,"32":0.051986683160066605,"33":-0.015315541997551918,"34":0.028077267110347748,"35":-0.18812385201454163,"36":-0.09419737011194229,"37":0.015692273154854774,"38":-0.1234636977314949,"39":-0.09125006198883057,"40":-0.1729535013437271,"41":0.1460716724395752,"42":0.014566181227564812,"43":-0.16370835900306702,"44":-0.18062162399291992,"45":0.13582220673561096,"46":-0.06876631826162338,"47":0.15991590917110443,"48":-0.12866759300231934,"49":0.11946862936019897,"50":0.07348708808422089,"51":-0.05675482004880905,"52":0.06504591554403305,"53":-0.18483397364616394,"54":0.03972744569182396,"55":-0.033219799399375916,"56":-0.06588288396596909,"57":-0.15689809620380402,"58":-0.04271238297224045,"59":-0.07087013125419617,"60":0.1518293023109436,"61":0.16044962406158447,"62":-0.03125661984086037,"63":-0.05149170383810997,"64":0.1405320167541504,"65":0.017889339476823807,"66":-0.16426852345466614,"67":0.13593538105487823,"68":-0.09156893193721771,"69":-0.030742865055799484,"70":0.0694347694516182,"71":0.09313531965017319,"72":-0.03051750920712948,"73":-0.09456871449947357,"74":-0.15599121153354645,"75":-0.005916938651353121,"76":-0.056637734174728394,"77":-0.09063026309013367,"78":-0.028413834050297737,"79":0.09175614267587662}},"29":{"bias":0.11965757608413696,"weights":{"0":-0.12863284349441528,"1":-0.024644896388053894,"2":-0.1381879597902298,"3":-0.1290285736322403,"4":-0.16127699613571167,"5":-0.14572811126708984,"6":0.13614948093891144,"7":0.13231198489665985,"8":-0.13978849351406097,"9":0.0005437969812192023,"10":0.034286435693502426,"11":0.0000018980952063429868,"12":-0.02607319876551628,"13":-0.14170341193675995,"14":-0.17057886719703674,"15":-0.09272449463605881,"16":-0.10957951098680496,"17":-0.14540302753448486,"18":-0.13940484821796417,"19":-0.024670178070664406,"20":-0.15271006524562836,"21":-0.1959773451089859,"22":-0.17615821957588196,"23":-0.15652990341186523,"24":0.014501720666885376,"25":-0.12223655730485916,"26":0.17357957363128662,"27":-0.17101426422595978,"28":0.13348257541656494,"29":0.07047399878501892,"30":-0.000009428274097444955,"31":0.1411266177892685,"32":0.010179786011576653,"33":0.18510816991329193,"34":0.16407111287117004,"35":0.024138348177075386,"36":-0.14109350740909576,"37":0.03895708918571472,"38":0.10040347278118134,"39":-0.1381196677684784,"40":0.180977463722229,"41":-0.13955795764923096,"42":0.08998201787471771,"43":-0.02103402279317379,"44":-0.13817940652370453,"45":0.1434655487537384,"46":0.0928502157330513,"47":0.0258944071829319,"48":0.04803568124771118,"49":0.14210152626037598,"50":0.02153956890106201,"51":0.17977705597877502,"52":0.06780333071947098,"53":0.06598813831806183,"54":0.11264725029468536,"55":0.1341736763715744,"56":0.020034903660416603,"57":0.19231797754764557,"58":0.16956569254398346,"59":-0.16770149767398834,"60":-0.08199840784072876,"61":-0.045309603214263916,"62":-0.0845581665635109,"63":-0.052933380007743835,"64":-0.19397085905075073,"65":0.043912164866924286,"66":0.025460854172706604,"67":0.15083709359169006,"68":0.024672318249940872,"69":0.12096461653709412,"70":0.004175117705017328,"71":-0.15888431668281555,"72":-0.11857191473245621,"73":0.10359729826450348,"74":0.03228523209691048,"75":0.17713004350662231,"76":-0.16399617493152618,"77":-0.07337881624698639,"78":0.04047970473766327,"79":-0.0064909495413303375}},"30":{"bias":0.12180979549884796,"weights":{"0":0.17648005485534668,"1":0.038307204842567444,"2":-0.13348370790481567,"3":-0.14913608133792877,"4":-0.05134796351194382,"5":0.0378691703081131,"6":-0.1676092892885208,"7":-0.08329008519649506,"8":-0.07092076539993286,"9":0.19918543100357056,"10":-0.07388172298669815,"11":-0.149034783244133,"12":-0.17094506323337555,"13":0.0010288861813023686,"14":-0.13102321326732635,"15":-0.004959471989423037,"16":-0.1127789095044136,"17":-0.05838979408144951,"18":0.06668948382139206,"19":-0.08885347098112106,"20":-0.1117485836148262,"21":-0.18232983350753784,"22":0.015222742222249508,"23":-0.024042733013629913,"24":0.18136046826839447,"25":0.007626837585121393,"26":-0.07602657377719879,"27":-0.04832284525036812,"28":0.08753547072410583,"29":0.10110534727573395,"30":-0.06210346892476082,"31":-0.12804456055164337,"32":0.025936424732208252,"33":-0.039906200021505356,"34":-0.1560497134923935,"35":-0.1622280776500702,"36":-0.10768290609121323,"37":-0.013658070005476475,"38":-0.07650955021381378,"39":-0.005016723647713661,"40":-0.18619602918624878,"41":-0.149506613612175,"42":0.005020172335207462,"43":0.008176969364285469,"44":-0.07912422716617584,"45":0.1769450455904007,"46":0.1451817750930786,"47":-0.02132553979754448,"48":-0.10472258180379868,"49":0.07580921798944473,"50":0.04656713083386421,"51":0.012616955675184727,"52":0.04300793260335922,"53":0.15551963448524475,"54":-0.12999369204044342,"55":-0.15275588631629944,"56":0.04185238108038902,"57":-0.1129649356007576,"58":-0.024509429931640625,"59":0.021294496953487396,"60":-0.023716945201158524,"61":-0.18039679527282715,"62":0.02634434588253498,"63":0.04910803958773613,"64":0.12804734706878662,"65":0.1306726187467575,"66":0.16163966059684753,"67":0.06823723763227463,"68":0.08301600068807602,"69":0.191301167011261,"70":-0.038889557123184204,"71":-0.06345420330762863,"72":-0.07250199466943741,"73":0.06001173332333565,"74":0.16598187386989594,"75":0.09200351685285568,"76":-0.036176249384880066,"77":0.03745005279779434,"78":0.10069333016872406,"79":-0.053025420755147934}},"31":{"bias":0.023937039077281952,"weights":{"0":-0.07899560034275055,"1":-0.061231520026922226,"2":-0.17595115303993225,"3":0.13188421726226807,"4":0.14444757997989655,"5":-0.0010317141423001885,"6":0.14000938832759857,"7":0.15841488540172577,"8":-0.0026875953190028667,"9":0.06385970860719681,"10":-0.023124538362026215,"11":-0.17515334486961365,"12":-0.17244859039783478,"13":0.15542848408222198,"14":-0.037277158349752426,"15":-0.05921231210231781,"16":-0.14803647994995117,"17":-0.023473406210541725,"18":0.09280739724636078,"19":0.14245174825191498,"20":-0.1979232281446457,"21":-0.10177882760763168,"22":-0.05373860150575638,"23":-0.09816495329141617,"24":0.17133328318595886,"25":-0.16698849201202393,"26":-0.039246074855327606,"27":-0.10966621339321136,"28":-0.12297459691762924,"29":-0.049671005457639694,"30":-0.026124052703380585,"31":0.09198245406150818,"32":-0.06660472601652145,"33":0.1835515797138214,"34":-0.08487139642238617,"35":0.087254099547863,"36":-0.1927783191204071,"37":-0.1148761734366417,"38":0.06456013023853302,"39":0.0025675504002720118,"40":-0.07076843082904816,"41":-0.14997975528240204,"42":0.05906541272997856,"43":-0.19125467538833618,"44":-0.06189537048339844,"45":0.027172047644853592,"46":0.08211292326450348,"47":0.1297081559896469,"48":0.05727320536971092,"49":-0.18871480226516724,"50":0.14193099737167358,"51":-0.006844815332442522,"52":0.17988094687461853,"53":0.14039121568202972,"54":-0.15087467432022095,"55":0.03595453500747681,"56":-0.0918331891298294,"57":0.17990483343601227,"58":0.18464016914367676,"59":-0.14242888987064362,"60":0.03123442456126213,"61":-0.038674917072057724,"62":-0.12841492891311646,"63":0.030711255967617035,"64":0.03105095401406288,"65":0.1480344831943512,"66":-0.18444199860095978,"67":0.1636616289615631,"68":-0.056242454797029495,"69":0.1548399031162262,"70":0.07211018353700638,"71":-0.07756868004798889,"72":0.022087305784225464,"73":0.1951151043176651,"74":0.015673436224460602,"75":0.10968880355358124,"76":-0.10503408312797546,"77":0.1638471633195877,"78":0.12593238055706024,"79":0.1642499715089798}},"32":{"bias":-0.12105638533830643,"weights":{"0":0.10625313222408295,"1":0.05495595932006836,"2":-0.18132995069026947,"3":0.08094783872365952,"4":-0.007124357391148806,"5":0.1958824098110199,"6":-0.01315477304160595,"7":-0.012856706976890564,"8":0.07189628481864929,"9":0.14966312050819397,"10":-0.14788013696670532,"11":-0.16618305444717407,"12":0.0702468529343605,"13":0.13028262555599213,"14":0.19114398956298828,"15":-0.028580131009221077,"16":0.05230458453297615,"17":-0.10791833698749542,"18":-0.10421661287546158,"19":-0.15026970207691193,"20":-0.19593963027000427,"21":0.020515544340014458,"22":0.033019229769706726,"23":0.09928573668003082,"24":-0.1263430416584015,"25":-0.174681156873703,"26":0.03689656779170036,"27":-0.08328703790903091,"28":-0.1045670211315155,"29":0.05548326298594475,"30":0.196817547082901,"31":0.07388196140527725,"32":-0.02739366702735424,"33":0.014160478487610817,"34":-0.06482566893100739,"35":-0.005899300333112478,"36":0.17458747327327728,"37":-0.12040698528289795,"38":-0.05777560919523239,"39":0.03607110306620598,"40":0.1288137286901474,"41":0.11145254969596863,"42":0.10131143778562546,"43":0.1521846055984497,"44":0.10251599550247192,"45":-0.05968343839049339,"46":-0.15568673610687256,"47":-0.1815141886472702,"48":0.000060971116909058765,"49":-0.17229394614696503,"50":-0.16815224289894104,"51":-0.013746054843068123,"52":-0.1875319480895996,"53":0.0658724457025528,"54":-0.12743423879146576,"55":-0.02764398418366909,"56":0.075736865401268,"57":-0.180014505982399,"58":0.1930074244737625,"59":0.01539410650730133,"60":0.11940940469503403,"61":0.056549884378910065,"62":0.07988724112510681,"63":-0.16550923883914948,"64":-0.11069020628929138,"65":0.022222569212317467,"66":0.15010924637317657,"67":0.10530831664800644,"68":-0.0005897156661376357,"69":-0.1923338621854782,"70":-0.04050620645284653,"71":0.1029103696346283,"72":-0.13698072731494904,"73":0.1682836413383484,"74":-0.050886962562799454,"75":0.1548936367034912,"76":0.17163366079330444,"77":0.1150021031498909,"78":0.14851832389831543,"79":-0.009342200122773647}},"33":{"bias":0.1008308157324791,"weights":{"0":-0.18332074582576752,"1":-0.13749825954437256,"2":0.13522522151470184,"3":-0.05262466147542,"4":-0.13714715838432312,"5":0.17945662140846252,"6":0.06723624467849731,"7":-0.00420746672898531,"8":-0.10682284086942673,"9":0.17753839492797852,"10":0.012039408087730408,"11":-0.13147097826004028,"12":0.172968789935112,"13":0.14241091907024384,"14":0.17284779250621796,"15":-0.03691377863287926,"16":-0.057971592992544174,"17":0.1703629344701767,"18":-0.09785712510347366,"19":-0.05430866405367851,"20":-0.11537424474954605,"21":-0.19220846891403198,"22":0.12328044325113297,"23":-0.15577910840511322,"24":0.013119273819029331,"25":0.09877750277519226,"26":-0.19151675701141357,"27":-0.17477472126483917,"28":0.19298996031284332,"29":0.1854659467935562,"30":-0.03821147233247757,"31":0.11115472763776779,"32":0.03391024470329285,"33":-0.1729413866996765,"34":-0.09680323302745819,"35":0.15514905750751495,"36":-0.14283223450183868,"37":0.0961688905954361,"38":-0.050222255289554596,"39":0.15534648299217224,"40":-0.04460994899272919,"41":0.07275622338056564,"42":-0.10796530544757843,"43":-0.05299875885248184,"44":0.1709401160478592,"45":0.1775246411561966,"46":0.020597387105226517,"47":0.04359700158238411,"48":0.14838041365146637,"49":-0.08516024798154831,"50":0.031903743743896484,"51":-0.010012597776949406,"52":0.11033260822296143,"53":-0.05036436393857002,"54":0.13741695880889893,"55":-0.020919784903526306,"56":0.005573210306465626,"57":-0.056897882372140884,"58":-0.08667559176683426,"59":0.1083071380853653,"60":0.12201771140098572,"61":0.04326263442635536,"62":0.17531359195709229,"63":0.17761199176311493,"64":0.15968948602676392,"65":-0.13597539067268372,"66":-0.04636668786406517,"67":-0.135083869099617,"68":0.0703112855553627,"69":0.17935824394226074,"70":-0.10512145608663559,"71":0.17927557229995728,"72":0.07190157473087311,"73":0.04227009415626526,"74":-0.11747848242521286,"75":-0.0480676144361496,"76":-0.0031964026857167482,"77":-0.12841328978538513,"78":0.06434465944766998,"79":0.17101119458675385}},"34":{"bias":-0.14429788291454315,"weights":{"0":0.04932187497615814,"1":-0.17135988175868988,"2":-0.0061159394681453705,"3":-0.1528676152229309,"4":-0.1675303429365158,"5":0.007836271077394485,"6":-0.11497634649276733,"7":-0.0008403018000535667,"8":0.18716803193092346,"9":0.15791021287441254,"10":0.19093039631843567,"11":-0.06280700862407684,"12":-0.1527009904384613,"13":-0.1596735715866089,"14":0.019701311364769936,"15":-0.1422566920518875,"16":-0.03736375272274017,"17":0.06821177154779434,"18":0.06955070793628693,"19":-0.19598190486431122,"20":-0.10323205590248108,"21":-0.14849019050598145,"22":-0.12835940718650818,"23":0.021308312192559242,"24":-0.180869460105896,"25":-0.11929313093423843,"26":0.19409899413585663,"27":0.1759134829044342,"28":-0.15279172360897064,"29":-0.0555599182844162,"30":-0.13054169714450836,"31":-0.03082052432000637,"32":-0.19971796870231628,"33":-0.019736353307962418,"34":-0.10019765794277191,"35":0.015623388811945915,"36":-0.17860691249370575,"37":-0.05815506353974342,"38":0.027017934247851372,"39":-0.19696635007858276,"40":-0.09387354552745819,"41":0.0440048947930336,"42":0.10199785977602005,"43":-0.0076372562907636166,"44":-0.10773377120494843,"45":0.03286704793572426,"46":0.069435253739357,"47":0.16043955087661743,"48":-0.17609405517578125,"49":0.11338162422180176,"50":-0.13105586171150208,"51":0.14780324697494507,"52":-0.027048654854297638,"53":-0.062494516372680664,"54":0.0076278760097920895,"55":0.1835775077342987,"56":-0.11928689479827881,"57":-0.11855580657720566,"58":-0.16705630719661713,"59":0.10963325947523117,"60":0.04566817358136177,"61":-0.011347838677465916,"62":0.05665438994765282,"63":-0.09994560480117798,"64":0.033178020268678665,"65":0.04413647949695587,"66":-0.030703037977218628,"67":0.03410663083195686,"68":0.1613410860300064,"69":-0.1076144129037857,"70":-0.09439399838447571,"71":-0.12599456310272217,"72":-0.028641466051340103,"73":0.15958672761917114,"74":-0.16067133843898773,"75":0.14423920214176178,"76":-0.09662849456071854,"77":0.06658987700939178,"78":-0.06193589046597481,"79":-0.11444879323244095}},"35":{"bias":0.07830676436424255,"weights":{"0":-0.0846136212348938,"1":-0.1711060255765915,"2":0.06220759451389313,"3":-0.10014607757329941,"4":0.03427838906645775,"5":-0.16250428557395935,"6":0.11821925640106201,"7":-0.016729313880205154,"8":-0.1075727567076683,"9":0.06465806812047958,"10":0.08767789602279663,"11":0.007814789190888405,"12":-0.06478483974933624,"13":-0.08960751444101334,"14":-0.051806166768074036,"15":0.021783359348773956,"16":-0.03919786214828491,"17":-0.021374443545937538,"18":0.02781907096505165,"19":-0.023548973724246025,"20":0.19297784566879272,"21":-0.11803789436817169,"22":0.021059641614556313,"23":-0.16360950469970703,"24":0.20174762606620789,"25":-0.009700316935777664,"26":-0.092599056661129,"27":-0.17980705201625824,"28":-0.18543674051761627,"29":0.007126313634216785,"30":0.08940916508436203,"31":-0.1674814224243164,"32":-0.14936013519763947,"33":0.1774657517671585,"34":-0.01835586130619049,"35":-0.04416150972247124,"36":-0.0434538908302784,"37":-0.07213006913661957,"38":-0.014463337138295174,"39":0.16479581594467163,"40":-0.09155340492725372,"41":0.15682312846183777,"42":0.05511675029993057,"43":-0.0699656754732132,"44":-0.10036345571279526,"45":-0.010057207196950912,"46":-0.10666477680206299,"47":0.15808574855327606,"48":-0.14957500994205475,"49":0.16389547288417816,"50":0.03526018559932709,"51":-0.11664348095655441,"52":-0.09088186174631119,"53":0.010863198898732662,"54":0.0753450021147728,"55":-0.05651006102561951,"56":-0.1762859970331192,"57":0.15917542576789856,"58":-0.14732886850833893,"59":-0.04735314100980759,"60":-0.03146219998598099,"61":-0.07945449650287628,"62":0.019113508984446526,"63":-0.08674884587526321,"64":-0.14729928970336914,"65":-0.01078641228377819,"66":0.03368224576115608,"67":0.1725054383277893,"68":-0.16816847026348114,"69":-0.16852577030658722,"70":0.04767335578799248,"71":-0.025539403781294823,"72":0.12769478559494019,"73":-0.16419453918933868,"74":0.10609770566225052,"75":0.08703118562698364,"76":0.033281274139881134,"77":-0.06326273828744888,"78":0.0036553835961967707,"79":0.03202388435602188}},"36":{"bias":0.1527198702096939,"weights":{"0":-0.03295459225773811,"1":0.020672721788287163,"2":0.04544533044099808,"3":0.002400532830506563,"4":0.1839084029197693,"5":0.17339523136615753,"6":0.059156786650419235,"7":0.00323022180236876,"8":0.12600882351398468,"9":0.19902463257312775,"10":-0.1678437441587448,"11":-0.007727328687906265,"12":-0.09474139660596848,"13":-0.05764906853437424,"14":-0.008046756498515606,"15":0.13385388255119324,"16":0.07759597152471542,"17":0.10484480112791061,"18":0.14356455206871033,"19":0.09245948493480682,"20":-0.06748304516077042,"21":0.1858198344707489,"22":0.16657069325447083,"23":-0.0956234335899353,"24":-0.04454037547111511,"25":-0.1800329089164734,"26":0.15302778780460358,"27":0.11637108027935028,"28":0.09987179189920425,"29":-0.17697733640670776,"30":0.07815968990325928,"31":0.05911819636821747,"32":-0.05320517346262932,"33":-0.11774866282939911,"34":-0.1153707504272461,"35":0.19874097406864166,"36":0.1964111030101776,"37":-0.12288717925548553,"38":0.08057757467031479,"39":-0.07071687281131744,"40":0.18326763808727264,"41":0.05481215566396713,"42":-0.07634060829877853,"43":-0.05186980962753296,"44":-0.14063914120197296,"45":-0.19826091825962067,"46":-0.12567083537578583,"47":-0.08652227371931076,"48":-0.1633734256029129,"49":-0.16154849529266357,"50":0.06141040846705437,"51":0.01754043810069561,"52":0.06578594446182251,"53":-0.06182505562901497,"54":-0.09201454371213913,"55":-0.14405043423175812,"56":-0.10697244852781296,"57":0.1325627565383911,"58":0.007558556739240885,"59":-0.16633373498916626,"60":0.023667512461543083,"61":-0.19172178208827972,"62":-0.03714475408196449,"63":0.06825493276119232,"64":0.1960303783416748,"65":0.15211355686187744,"66":0.14601770043373108,"67":0.09452948719263077,"68":-0.019970174878835678,"69":-0.08838856220245361,"70":0.08359986543655396,"71":0.061459608376026154,"72":-0.12691864371299744,"73":0.024977529421448708,"74":-0.059183165431022644,"75":0.19788427650928497,"76":0.04507731273770332,"77":-0.1614481657743454,"78":0.09016495943069458,"79":0.08975721895694733}},"37":{"bias":0.03768550977110863,"weights":{"0":0.21006278693675995,"1":-0.15162800252437592,"2":0.1215648427605629,"3":0.15676170587539673,"4":0.13929982483386993,"5":0.17431682348251343,"6":-0.0848304033279419,"7":0.021030377596616745,"8":-0.026859348639845848,"9":0.13509872555732727,"10":-0.12278689444065094,"11":-0.12815862894058228,"12":0.1052878275513649,"13":0.03792091831564903,"14":0.05985729396343231,"15":0.20412567257881165,"16":-0.17306189239025116,"17":-0.06696794927120209,"18":-0.16586337983608246,"19":-0.0349971242249012,"20":-0.1599632203578949,"21":0.17504476010799408,"22":0.0871371477842331,"23":-0.18253956735134125,"24":0.09589347243309021,"25":-0.0839347317814827,"26":-0.012185142375528812,"27":0.17807842791080475,"28":0.15735892951488495,"29":-0.0017342263599857688,"30":0.00713481055572629,"31":-0.04654279723763466,"32":0.15765997767448425,"33":-0.04190545156598091,"34":-0.04513844847679138,"35":-0.021502075716853142,"36":0.18286719918251038,"37":0.12715157866477966,"38":-0.0632898285984993,"39":0.12517374753952026,"40":-0.01965951919555664,"41":0.16961629688739777,"42":-0.1824886053800583,"43":-0.02876995876431465,"44":-0.15660612285137177,"45":-0.09686228632926941,"46":0.19445937871932983,"47":0.027526555582880974,"48":-0.1367495357990265,"49":-0.007553223054856062,"50":-0.19552549719810486,"51":0.18375885486602783,"52":0.11677879095077515,"53":0.02927721105515957,"54":-0.08926616609096527,"55":-0.08486727625131607,"56":-0.046809785068035126,"57":-0.056494973599910736,"58":0.05308683589100838,"59":-0.08705610781908035,"60":0.11315517872571945,"61":-0.12047448754310608,"62":0.0627746433019638,"63":0.15121018886566162,"64":-0.026865797117352486,"65":0.02011999487876892,"66":0.10008898377418518,"67":0.14511801302433014,"68":-0.1701044887304306,"69":-0.11741261184215546,"70":0.1630299836397171,"71":-0.15340806543827057,"72":-0.15368732810020447,"73":0.017226336523890495,"74":0.17193636298179626,"75":-0.13531510531902313,"76":-0.1849863976240158,"77":-0.1538788378238678,"78":-0.09399896115064621,"79":0.03183578699827194}},"38":{"bias":-0.07917723059654236,"weights":{"0":-0.1217028871178627,"1":0.06246466562151909,"2":0.13939541578292847,"3":-0.05475679039955139,"4":-0.1532735675573349,"5":-0.14023764431476593,"6":-0.1463971585035324,"7":-0.008906218223273754,"8":0.13128511607646942,"9":-0.14920401573181152,"10":-0.05943495035171509,"11":-0.07510758191347122,"12":-0.09009794890880585,"13":0.1997605562210083,"14":-0.15443576872348785,"15":0.13762006163597107,"16":-0.17807014286518097,"17":-0.12360363453626633,"18":0.09800655394792557,"19":-0.03877658769488335,"20":-0.05185404792428017,"21":0.0419221967458725,"22":0.10627718269824982,"23":-0.12452265620231628,"24":-0.1487111747264862,"25":0.16637669503688812,"26":0.12105423212051392,"27":0.0022393609397113323,"28":-0.12173203378915787,"29":-0.08244072645902634,"30":-0.031247301027178764,"31":-0.031009163707494736,"32":0.01799008622765541,"33":-0.003515640739351511,"34":0.11854894459247589,"35":0.11184853315353394,"36":0.107093945145607,"37":0.1345493495464325,"38":-0.04482562467455864,"39":-0.08718667924404144,"40":-0.035065118223428726,"41":-0.06093720719218254,"42":-0.1123579740524292,"43":0.058965351432561874,"44":0.1990646868944168,"45":-0.18249966204166412,"46":0.0722370520234108,"47":-0.05821191892027855,"48":0.10254956781864166,"49":-0.010925212875008583,"50":0.04732618108391762,"51":0.12511636316776276,"52":0.10530071705579758,"53":-0.06807717680931091,"54":-0.0648135095834732,"55":-0.11300551891326904,"56":-0.1122577041387558,"57":0.01820952445268631,"58":-0.12342645972967148,"59":-0.026989638805389404,"60":0.05251539871096611,"61":0.17611384391784668,"62":-0.11048421263694763,"63":-0.06845977157354355,"64":-0.18308661878108978,"65":-0.06647205352783203,"66":0.15255510807037354,"67":-0.1964971274137497,"68":-0.08042727410793304,"69":0.0940701961517334,"70":-0.194785937666893,"71":-0.0386454276740551,"72":-0.14336629211902618,"73":0.09244842082262039,"74":-0.06577464193105698,"75":-0.0763305053114891,"76":-0.007138613611459732,"77":-0.10569313168525696,"78":-0.0730484127998352,"79":0.14498227834701538}},"39":{"bias":0.08957675844430923,"weights":{"0":0.17877595126628876,"1":-0.06482753902673721,"2":0.05121057108044624,"3":0.13930079340934753,"4":0.05220533534884453,"5":0.18664629757404327,"6":0.12275636941194534,"7":-0.12375985085964203,"8":-0.1630091518163681,"9":-0.03724878281354904,"10":-0.09236672520637512,"11":-0.1443077027797699,"12":-0.11657703667879105,"13":0.18503594398498535,"14":-0.1886667162179947,"15":-0.13572761416435242,"16":0.09017486870288849,"17":0.021335242316126823,"18":0.16366888582706451,"19":0.11867108196020126,"20":0.17724783718585968,"21":-0.0672433078289032,"22":-0.0736720860004425,"23":0.13242469727993011,"24":-0.03546702116727829,"25":-0.1913786232471466,"26":-0.0769609734416008,"27":-0.16603374481201172,"28":0.18580694496631622,"29":0.06592673808336258,"30":-0.055808741599321365,"31":-0.11573802679777145,"32":-0.05210278555750847,"33":-0.08774755895137787,"34":-0.04945297911763191,"35":-0.006474398076534271,"36":-0.09303373098373413,"37":0.16162322461605072,"38":-0.11168156564235687,"39":0.05326065421104431,"40":-0.04619146138429642,"41":-0.05581924319267273,"42":-0.036904316395521164,"43":0.17098583281040192,"44":-0.08645953983068466,"45":-0.025659173727035522,"46":-0.17609436810016632,"47":0.1177850291132927,"48":0.008653873577713966,"49":-0.15008322894573212,"50":-0.0974445790052414,"51":0.1972978711128235,"52":-0.08012636750936508,"53":0.18103916943073273,"54":0.06465054303407669,"55":-0.07647538930177689,"56":0.1865200698375702,"57":-0.18317283689975739,"58":-0.09652826189994812,"59":-0.17958146333694458,"60":0.15396806597709656,"61":0.09759523719549179,"62":0.1797170788049698,"63":-0.10496494174003601,"64":0.05149797722697258,"65":0.15881797671318054,"66":0.12156910449266434,"67":0.10514359176158905,"68":0.18753643333911896,"69":-0.06508445739746094,"70":-0.14511077105998993,"71":0.13351301848888397,"72":0.16592107713222504,"73":0.012070711702108383,"74":-0.1380189061164856,"75":0.015426106750965118,"76":0.1426609307527542,"77":-0.05555438622832298,"78":-0.10228746384382248,"79":-0.017460547387599945}}},{"score":{"bias":-0.47562283277511597,"weights":{"0":-0.39421576261520386,"1":-0.16478990018367767,"2":-0.3048516809940338,"3":-0.03984306752681732,"4":-0.09974038600921631,"5":-0.48441046476364136,"6":-0.32450971007347107,"7":-0.4621790051460266,"8":-0.23724572360515594,"9":-0.27526330947875977,"10":-0.14623665809631348,"11":-0.2787711024284363,"12":-0.5068910717964172,"13":-0.37081179022789,"14":-0.5069003105163574,"15":-0.14267893135547638,"16":-0.10201793164014816,"17":-0.2603220045566559,"18":-0.0421614833176136,"19":-0.20606404542922974,"20":-0.1657525897026062,"21":-0.329195499420166,"22":-0.3483690321445465,"23":-0.07266294211149216,"24":-0.09658454358577728,"25":-0.07823888212442398,"26":-0.09868080914020538,"27":-0.2575390934944153,"28":-0.32401806116104126,"29":0.0317189060151577,"30":-0.12071528285741806,"31":-0.13465091586112976,"32":-0.11963541805744171,"33":-0.07664137333631516,"34":0.05070563033223152,"35":-0.28113120794296265,"36":-0.2973898649215698,"37":-0.32860100269317627,"38":-0.29885178804397583,"39":-0.18650664389133453}}}],"outputLookup":true,"inputLookup":false,"activation":"sigmoid","trainOpts":{"iterations":10,"errorThresh":0.00014,"log":true,"logPeriod":1,"learningRate":0.3,"momentum":0.1,"callbackPeriod":10,"beta1":0.9,"beta2":0.999,"epsilon":1e-8}}